tree
version=v4
num_class=1
num_tree_per_iteration=1
label_index=0
max_feature_idx=262
objective=regression_l1
feature_names=Column_0 Column_1 Column_2 Column_3 Column_4 Column_5 Column_6 Column_7 Column_8 Column_9 Column_10 Column_11 Column_12 Column_13 Column_14 Column_15 Column_16 Column_17 Column_18 Column_19 Column_20 Column_21 Column_22 Column_23 Column_24 Column_25 Column_26 Column_27 Column_28 Column_29 Column_30 Column_31 Column_32 Column_33 Column_34 Column_35 Column_36 Column_37 Column_38 Column_39 Column_40 Column_41 Column_42 Column_43 Column_44 Column_45 Column_46 Column_47 Column_48 Column_49 Column_50 Column_51 Column_52 Column_53 Column_54 Column_55 Column_56 Column_57 Column_58 Column_59 Column_60 Column_61 Column_62 Column_63 Column_64 Column_65 Column_66 Column_67 Column_68 Column_69 Column_70 Column_71 Column_72 Column_73 Column_74 Column_75 Column_76 Column_77 Column_78 Column_79 Column_80 Column_81 Column_82 Column_83 Column_84 Column_85 Column_86 Column_87 Column_88 Column_89 Column_90 Column_91 Column_92 Column_93 Column_94 Column_95 Column_96 Column_97 Column_98 Column_99 Column_100 Column_101 Column_102 Column_103 Column_104 Column_105 Column_106 Column_107 Column_108 Column_109 Column_110 Column_111 Column_112 Column_113 Column_114 Column_115 Column_116 Column_117 Column_118 Column_119 Column_120 Column_121 Column_122 Column_123 Column_124 Column_125 Column_126 Column_127 Column_128 Column_129 Column_130 Column_131 Column_132 Column_133 Column_134 Column_135 Column_136 Column_137 Column_138 Column_139 Column_140 Column_141 Column_142 Column_143 Column_144 Column_145 Column_146 Column_147 Column_148 Column_149 Column_150 Column_151 Column_152 Column_153 Column_154 Column_155 Column_156 Column_157 Column_158 Column_159 Column_160 Column_161 Column_162 Column_163 Column_164 Column_165 Column_166 Column_167 Column_168 Column_169 Column_170 Column_171 Column_172 Column_173 Column_174 Column_175 Column_176 Column_177 Column_178 Column_179 Column_180 Column_181 Column_182 Column_183 Column_184 Column_185 Column_186 Column_187 Column_188 Column_189 Column_190 Column_191 Column_192 Column_193 Column_194 Column_195 Column_196 Column_197 Column_198 Column_199 Column_200 Column_201 Column_202 Column_203 Column_204 Column_205 Column_206 Column_207 Column_208 Column_209 Column_210 Column_211 Column_212 Column_213 Column_214 Column_215 Column_216 Column_217 Column_218 Column_219 Column_220 Column_221 Column_222 Column_223 Column_224 Column_225 Column_226 Column_227 Column_228 Column_229 Column_230 Column_231 Column_232 Column_233 Column_234 Column_235 Column_236 Column_237 Column_238 Column_239 Column_240 Column_241 Column_242 Column_243 Column_244 Column_245 Column_246 Column_247 Column_248 Column_249 Column_250 Column_251 Column_252 Column_253 Column_254 Column_255 Column_256 Column_257 Column_258 Column_259 Column_260 Column_261 Column_262
feature_infos=[-4.483670711517334:6] [-4.0106387138366699:6] [-3.7271349430084229:6] [-3.2796313762664795:3.3618113994598389] [-1.6536368131637573:3.9846975803375244] [-4.1130223274230957:6] [-4.5907130241394043:4.8051061630249023] [-1.7580752372741699:1.8783198595046997] [-2.2145154476165771:2.2727565765380859] [-2.3337821960449219:2.3084590435028076] [-2.4016566276550293:2.4948363304138184] [-2.353290319442749:2.364058256149292] [-3.4950368404388428:3.3696901798248291] [-2.5829675197601318:2.6536188125610352] [-2.5070714950561523:2.4863247871398926] [-2.4820795059204102:2.6062419414520264] [-2.4725222587585449:2.4171087741851807] [-3.9111061096191406:4.125551700592041] [-6:6] [-3.4071526527404785:2.7252154350280762] [-6:2.9196712970733643] [-3.7076606750488281:3.4283990859985352] [-5.7501368522644043:6] [-2.7636475563049316:2.9581952095031738] [-6:3.2811884880065918] [-3.5675044059753418:2.7164137363433838] [-4.5550241470336914:3.0735790729522705] [-4.2459864616394043:3.2690737247467041] [-2.9937074184417725:4.0885400772094727] [-4.1054649353027344:4.019139289855957] [-3.4582891464233398:3.484544038772583] [-3.0570967197418213:3.1493937969207764] [-6:6] [-3.8370652198791504:3.6081862449645996] [-3.2654368877410889:3.1756010055541992] [-3.0041258335113525:3.0072300434112549] [-6:6] [-4.188720703125:4.0886754989624023] [-2.4262435436248779:3.6513388156890869] [-2.2918760776519775:3.8750097751617432] [-1.9864809513092041:3.6840434074401855] [-6:5.6561398506164551] [-6:6] [-5.0414319038391113:4.2354536056518555] [-1.7315336465835571:1.738290548324585] [-1.7340352535247803:1.7293850183486938] [-1.7334350347518921:1.7361105680465698] [-1.7381865978240967:1.7312754392623901] [-1.728610634803772:1.7318661212921143] [-1.7415587902069092:1.7300492525100708] [-5.5998568534851074:5.1200356483459473] [-6:6] [-5.7811579704284668:6] [-6:6] [-6:3.8157646656036377] [-3.2288234233856201:6] [-6:6] [-6:6] [-3.1752734184265137:4.0665097236633301] [-3.0625948905944824:2.9993729591369629] [-2.6118693351745605:6] [-6:6] [-6:6] [-3.0403182506561279:6] [-4.5828781127929688:4.9587278366088867] [-4.2021346092224121:4.8145685195922852] [-6:6] [-1.3518939018249512:6] [-3.2490444183349609:6] [-6:6] [-2.6509764194488525:5.4254283905029297] [-1.6378511190414429:6] [-4.8551816940307617:6] [-6:6] [-6:6] [-3.2159140110015869:6] [-2.1426069736480713:6] [-6:2.2987899780273438] [-1.8780003786087036:6] [-6:4.4542522430419922] [-2.2128682136535645:6] [-4.7686424255371094:6] [-4.9045243263244629:1.6847727298736572] [-2.5434131622314453:6] [-1.3548368215560913:6] [-6:6] [-6:6] [-6:6] [-6:6] [-6:6] [-6:6] [-1.693629264831543:6] [-6:6] [-1.7524688243865967:6] [-6:6] [-1.7603585720062256:6] [-6:6] [-4.3768467903137207:6] [-5.6831192970275879:5.1721148490905762] [-6:6] [-3.2796313762664795:3.3618113994598389] [-3.6993541717529297:3.7326834201812744] [-5.5621199607849121:5.2783627510070801] [-1.6536368131637573:3.9846975803375244] [-2.7707400321960449:2.6948342323303223] [-4.4733920097351074:4.205021858215332] [-4.2803020477294922:6] [-4.9641199111938477:4.8906974792480469] [-6:5.8810653686523438] [-3.8926956653594971:6] [-4.6434707641601562:4.8227791786193848] [-6:6] [-1.7580752372741699:1.8783198595046997] [-2.4043347835540771:2.3255398273468018] [-4.0484719276428223:4.2823429107666016] [-4.1130223274230957:4.2180070877075195] [-4.9677419662475586:5.0793333053588867] [-5.0925350189208984:5.0969424247741699] [-4.1054649353027344:3.918062686920166] [-3.7923967838287354:3.5972602367401123] [-4.4056191444396973:4.1988167762756348] [-6:6] [-6:6] [-6:6] [-5.626406192779541:5.3530030250549316] [-6:6] [-6:6] [-4.7819743156433105:3.8388984203338623] [-6:6] [-4.0613555908203125:4.4900932312011719] [-6:6] [-6:6] [-6:6] [-6:6] [-6:6] [-6:6] [-5.205841064453125:6] [-6:5.8777260780334473] [-1.9539284706115723:6] [-1.7423505783081055:1.7304384708404541] [-6:6] [-1.7433372735977173:1.7333723306655884] [-4.3004183769226074:3.2690737247467041] [-4.4624624252319336:4.4728860855102539] [-4.3305583000183105:4.8749175071716309] [-1.7381912469863892:1.7311611175537109] [-6:6] [-1.8476126194000244:1.8313263654708862] [-6:3.9548633098602295] [-6:6] [-6:3.1449644565582275] [-2.6239056587219238:6] [-6:6] [-3.608022928237915:6] [-1.3935897350311279:6] [-6:6] [-1.4226638078689575:6] [-2.4087305068969727:2.4582393169403076] [-3.2199306488037109:3.196141242980957] [-4.1817193031311035:4.2797799110412598] [-6:6] [-6:6] [-6:3.9973480701446533] [-3.6135504245758057:6] [-6:6] [-2.5216724872589111:6] [-6:6] [-6:6] [-6:6] [-2.6837527751922607:2.9581952095031738] [-3.8855981826782227:3.692645788192749] [-3.713186502456665:3.876511812210083] [-3.9111061096191406:4.3268489837646484] [-3.8564760684967041:3.8721475601196289] [-5.1090254783630371:5.8206620216369629] [-1.7334350347518921:1.7350723743438721] [-6:6] [-1.8021388053894043:1.8214324712753296] [-2.5829675197601318:2.6536188125610352] [-3.0979130268096924:3.0574395656585693] [-4.4017677307128906:4.836738109588623] [-2.4820795059204102:2.5593299865722656] [-3.1630377769470215:3.2191431522369385] [-3.9290692806243896:4.1868987083435059] [-2.4262435436248779:3.6513388156890869] [-3.2345974445343018:3.4923686981201172] [-4.3401041030883789:4.8278470039367676] [-6:6] [-1.4391167163848877:6] [-1.4655258655548096:6] [-6:6] [-6:6] [-6:6] [-2.2329113483428955:6] [-6:6] [-6:6] [-2.4099359512329102:6] [-6:6] [-6:6] [-3.0403890609741211:3.4326903820037842] [-0.11638064682483673:0.1270354837179184] [-6:3.9736566543579102] [-5.5327153205871582:4.458625316619873] [-4.4630069732666016:5.035426139831543] [-5.0434160232543945:3.6532852649688721] [-6:4.3792243003845215] [-3.7785162925720215:4.0881400108337402] [-4.1263947486877441:4.1410012245178223] [-4.3989615440368652:5.3582267761230469] [-4.7455191612243652:4.3210945129394531] [-4.8234319686889648:6] [-5.0549945831298828:5.1091899871826172] [-4.1332573890686035:4.780423641204834] [-1.4085960388183594:1.4641938209533691] [-9.2077550888061523:9.0888614654541016] [-1.3552079200744629:1.1673725843429565] [-0.99849963188171387:1] [-1.2531923055648804:0.99085384607315063] [-0.72090232372283936:0.76099270582199097] [-27.751449584960938:29.232433319091797] [-25.14622688293457:17.51263427734375] [-16.478759765625:11.975174903869629] [-8.6941118240356445:11.362380027770996] [-4.3697113990783691:3.61142897605896] [-1.2327501773834229:1.391232967376709] [-32.637702941894531:53.023181915283203] [-0.43957048654556274:0.50141346454620361] [-123.00189208984375:80.822006225585938] [-2.8206639289855957:3.4328494071960449] [-0.99849963188171387:1] [-1.1765590906143188:1.2185089588165283] [-0.70726245641708374:0.70625931024551392] [-0.37748253345489502:0.39556664228439331] [-0.99849963188171387:1] [-1.7301026582717896:1.7301026582717896] [-0.99849963188171387:1] [-1.5586509704589844:1.5573521852493286] [-3.8446576595306396:1.3708645105361938] [-0.60501819849014282:0.54511386156082153] [-0.77924257516860962:0.74060946702957153] [-1.11040198802948:0.95783019065856934] [-26.829496383666992:22.062370300292969] [-1.9953293800354004:1.851698637008667] [-2.2447073459625244:0.78675699234008789] [-4.8555483818054199:5.9312043190002441] [-0.70601117610931396:0.7031676173210144] [-0.99849963188171387:1] [-0.765525221824646:0.76321780681610107] [-1.4007431268692017:1.3560498952865601] [-2.9406707286834717:3.0723836421966553] [-4.0160360336303711:25.261045455932617] [-1.7301026582717896:1.7301026582717896] [-0.99849963188171387:1] [-1.5647788047790527:1.3483861684799194] [-0.98000001907348633:1] [-1.7301026582717896:1.7301026582717896] [-0.98348349332809448:0.9954988956451416] [-1.7301026582717896:1.7301026582717896] [-8.028900146484375:7.8632020950317383] [-0.99024754762649536:0.98649662733078003] [-6.5235896110534668:7.193962574005127] [-1.9304471015930176:2.0822937488555908] [-3.9014987945556641:14.927979469299316]
tree_sizes=6321 6439 6472 6390 6425 6414 6452 6454 6422 6435 6443 6464 6440 6445 6426 6448 6457 6482 6406 6445 6419 6416 6415 6449 6432 6455 6427 6433 6445 6441 6448 6420 6417 6427 6404 6442 6415 6426 6439 6435 6422 6435 6424 6418 6455 6436 6460 6457 6401 6451 6395 6419 6446 6410 6430 6413 6442 6420 6444 6417 6427 6447 6450 6414 6435 6431 6459 6428 6446 6436 6424 6426 6404 6401 6412 6451 6394 6420 6442 6442 6422 6457 6446 6407 6414 6397 6421 6432 6440 6405 6429 6422 6439 6421 6436 6437 6420 6413 6451 6427 6433 6432 6448 6457 6445 6455 6413 6404 6441 6437 6444 6423 6442 6425 6411 6426 6456 6421 6460 6440 6443 6416 6443 6401 6428 6413 6412 6412 6418 6437 6417 6435 6414 6437 6440 6417 6461 6412 6423 6434 6434 6436 6436 6431 6411 6427 6450 6416 6427 6450 6443 6425 6441 6445 6440 6446 6445 6412 6406 6428 6445 6451 6402 6405 6426 6423 6402 6426 6403 6417 6449 6431 6380 6430 6394 6460 6424 6410 6410 6384 6413 6397 6423 6422 6432 6414 6441 6441 6432 6427 6423 6426 6413 6429 6426 6438 6457 6441 6436 6425 6432 6433 6429 6419 6425 6420 6412 6446 6441 6435 6435 6421 6437 6403 6439 6416 6411 6425 6361 6416 6419 6428 6414 6400 6418 6431 6412 6414 6398 6430 6437 6405 6419 6411 6414 6426 6417 6405 6420 6405 6418 6429 6413 6413 6435 6387 6422 6398 6389 6423 6401 6411 6418 6401 6471 6435 6363 6422 6401 6391 6388 6424 6409 6423 6411 6399 6385 6479 6415 6411 6413 6428 6365 6433 6350 6414 6413 6390 6398 6393 6429 6382 6441 6413 6437 6394 6400 6429 6452 6418 6422 6417 6403 6394 6420 6429 6377 6439 6361 6415 6414 6412 6415 6407 6434 6423 6444 6377 6425 6403 6401 6429 6439 6416 6371 6387 6452 6452 6423 6427 6411 6443 6457 6412 6401 6415 6425 6458 6424 6413 6384 6419 6445 6446 6408 6411 6432 6392 6417 6386 6429 6402 6422 6418 6418 6393 6405 6404 6419 6382 6428 6436 6414 6417 6412 6376 6428 6367 6438 6351 6405 6399 6395 6400 6451 6379 6411 6425 6381 6419 6351 6372 6367 6415 6443 6427 6392 6366 6408 6428 6382 6394 6424 6373 6397 6383 6392 6363 6414 6401 6424 6424 6359 6439 6313 6411 6436 6397 6411 6423 6414 6337 6418 6425 6448 6368 6403 6442 6420 6404 6338 6395 6417 6421 6403 6416 6425 6401 6413 6437 6347 6389 6379 6448 6364 6419 6461 6347 6341 6426 6425 6382 6396 6401 6381 6408 6434 6398 6373 6328 6397 6371 6411 6364 6379 6441 6393 6375 6417 6371 6382 6412 6404 6374 6365 6433 6437 6435 6443 6391 6442 6427 6427 6456 6370 6381 6400 6397 6382 6414 6428 6410 6314 6356 6365 6419 6339 6395 6353 6414 6388 6350 6357 6434 6415 6320 6388 6370 6414 6385 6367 6412 6403 6414 6340 6427 6430 6441 6356 6370

Tree=0
num_leaves=63
num_cat=0
split_feature=3 227 227 214 214 251 243 260 214 2 260 150 227 243 2 241 218 102 97 243 70 177 243 43 225 225 202 136 27 228 150 252 214 97 198 208 189 87 256 156 95 143 225 150 228 61 124 129 177 170 103 37 37 104 202 61 103 130 220 198 61 256
split_gain=1089.9 364.458 328.559 148.894 113.691 110.25 102.511 60.7453 52.7067 50.8656 50.0216 44.6856 41.0955 38.485 37.0216 33.8349 32.5879 32.5852 32.4436 32.0255 31.9725 30.346 29.9321 29.1843 28.7363 28.6003 28.035 32.3059 26.0124 25.6622 25.2287 25.153 26.2865 24.8736 28.4457 23.8347 23.6007 23.5624 22.9013 22.759 27.5463 22.5031 22.0875 21.5809 21.4761 20.4854 23.9114 20.3867 20.2991 20.1067 19.561 19.0958 20.0043 19.018 18.7713 19.781 18.7201 18.4454 18.2326 18.1784 17.7985 17.1146
threshold=-0.022307176142930981 4.4101920127868661 -2.5788956880569454 0.045419683679938323 0.50029283761978161 -1.5546883344650266 0.30194869637489324 0.35491639375686651 -1.2293781042098997 -0.0768412910401821 -0.2774099707603454 1.0000000180025095e-35 2.8533673286437993 -0.3186794221401214 0.14212266355752948 -0.74785083532333363 0.042937172576785095 1.5475062131881716 1.7046105861663821 -0.039550814777612679 -1.2476902008056638 1.5249230861663821 0.036786058917641647 0.02731957379728556 -0.34411653876304621 -1.4459612369537351 -0.15319734066724774 0.60687729716300975 1.3335192203521731 -0.72838792204856861 0.028121880255639557 0.64352741837501537 -1.9136506915092466 0.47135497629642492 1.0219945311546328 0.36368846893310552 0.69208610057830822 -0.9622206687927245 0.077423445880413069 -0.17615661770105359 1.6784738898277285 -0.80437451601028431 -0.45672340691089625 -0.63528382778167714 0.26234598457813268 0.11010950058698656 -0.29767055809497828 0.80169609189033519 1.5532689690589907 -0.21999644488096234 -0.50366193056106556 0.93181386590003978 1.107600271701813 -0.84325319528579701 -0.41809830069541926 1.6209529638290407 -1.4688436985015867 0.64914134144783031 0.85596805810928356 2.136566281318665 1.0302850008010866 -0.23076921701431272
decision_type=2 2 2 2 2 2 2 2 2 2 2 2 2 2 2 2 2 2 2 2 2 2 2 2 2 2 2 2 2 2 2 2 2 2 2 2 2 2 2 2 2 2 2 2 2 2 2 2 2 2 2 2 2 2 2 2 2 2 2 2 2 2
left_child=1 4 5 14 9 13 7 22 25 18 38 16 59 43 29 -13 -6 26 35 61 -9 39 -3 -18 44 28 -8 36 58 -4 -10 32 48 34 -25 51 -28 -32 -5 -22 -41 -26 -11 -2 -17 53 -47 -34 -21 -31 -43 -1 -53 -24 -15 -56 -44 60 -7 -12 -27 -16
right_child=2 6 3 10 11 8 17 20 30 42 12 15 -14 54 19 24 23 -19 -20 31 21 -23 45 33 41 57 27 -29 -30 49 37 -33 47 -35 -36 -37 -38 -39 -40 40 -42 50 56 -45 -46 46 -48 -49 -50 -51 -52 52 -54 -55 55 -57 -58 -59 -60 -61 -62 -63
leaf_value=0.0011321445264941392 -0.00062255363770864021 0.00092278479974578311 0.0012786657315559619 0.00091941110483003503 0.0011072112693261053 0.00039891742166565155 0.0014092915074798609 0.0011733421029071637 0.00077541023615875935 0.00088593541938696159 0.001054101023603021 0.00096614867361924307 0.001214090970726742 0.00087745627994755037 0.00065372050506983773 0.0011008977046000545 0.0010479650692940461 0.00087318429714725813 0.00080891150514770637 0.00072918397946434145 0.0012608903709533585 0.0011816333621187086 0.0012933402657243755 0.0013357945445478755 0.0010474427867489494 0.00070171123735972632 0.0016889280715429453 0.0020847067914265159 0.00070816792301243569 0.0010053717581666047 0.001224848780341805 0.00099693901611338977 0.00089333365571383084 0.0011544182512867294 0.0010967837874353503 0.0010241117739667746 0.0011457015746439477 0.00091462696814718512 0.0010752017434975795 0.0015261599067705818 0.0013819862794408307 0.0012761899708038358 0.0013785139372019645 8.8865878478406579e-05 0.00091060865086381427 0.0011171976680302016 0.001499731457663144 0.00099812036491382932 0.0013041902332441143 0.0009234039678117158 0.0011434710445252332 0.00088922101398514197 0.0010810823198042108 0.0010006206189266083 0.00036621083434290553 0.0010440062281429113 0.001003647088218362 0.00089865825755760294 0.00074311470655830656 0.00067159622718156317 0.0010922743762688959 0.00085435514750120385
leaf_weight=68346 1132 6767 2655 38193 28925 11402 2940 8820 26124 19701 82336 21312 25139 1719 10765 21089 7233 848 5360 13240 18486 5711 6288 33638 15251 25157 5189 3837 4527 56249 3707 27908 88068 13486 5081 36686 1108 22553 15627 30194 3915 20762 1621 999 10095 4577 6385 20912 879 75628 34708 4140 10915 7885 11337 743 102164 7151 2297 1540 2030 21993
leaf_count=68346 1132 6767 2655 38193 28925 11402 2940 8820 26124 19701 82336 21312 25139 1719 10765 21089 7233 848 5360 13240 18486 5711 6288 33638 15251 25157 5189 3837 4527 56249 3707 27908 88068 13486 5081 36686 1108 22553 15627 30194 3915 20762 1621 999 10095 4577 6385 20912 879 75628 34708 4140 10915 7885 11337 743 102164 7151 2297 1540 2030 21993
internal_value=0.0010219 0.00113583 0.00091336 0.000956145 0.00109021 0.000743132 0.00132174 0.00128034 0.000786244 0.00103728 0.00104593 0.00115246 0.00109093 0.000459733 0.000910191 0.0011074 0.00121519 0.00161555 0.00108909 0.000876458 0.00134276 0.00137382 0.00114873 0.00126419 0.0011351 0.00070441 0.0016606 0.00175228 0.000586881 0.000956327 0.000868521 0.000899017 0.000876563 0.00129432 0.00134151 0.00110155 0.00158782 0.000948888 0.000954901 0.00140132 0.00145764 0.00117583 0.000984699 -1.52997e-07 0.00104247 0.00120686 0.00132567 0.000895901 0.000727915 0.000949122 0.00121001 0.00113567 0.00101839 0.00111438 0.000531628 0.000480633 0.00100606 0.000767059 0.000507249 0.00105201 0.000723536 0.000772727
internal_weight=1.17547e+06 573463 602010 481132 460513 120878 112950 99028 104948 248933 162835 211580 109015 15930 318297 123217 88363 13922 125447 183765 67126 58306 31902 59438 101905 52564 13074 10134 18226 134532 52384 151007 123099 52205 38719 120087 6297 26260 53820 52595 34109 70721 123486 2131 31184 25135 10962 108980 14119 131877 55470 83401 15055 14173 13799 12080 103785 34338 13699 83876 27187 32758
internal_count=1175473 573463 602010 481132 460513 120878 112950 99028 104948 248933 162835 211580 109015 15930 318297 123217 88363 13922 125447 183765 67126 58306 31902 59438 101905 52564 13074 10134 18226 134532 52384 151007 123099 52205 38719 120087 6297 26260 53820 52595 34109 70721 123486 2131 31184 25135 10962 108980 14119 131877 55470 83401 15055 14173 13799 12080 103785 34338 13699 83876 27187 32758
is_linear=0
shrinkage=0.182599


Tree=1
num_leaves=63
num_cat=0
split_feature=0 250 227 139 213 235 227 0 212 0 147 222 202 205 0 147 44 80 205 143 139 0 1 188 239 230 202 62 95 156 213 182 211 175 238 211 47 80 70 62 46 24 46 128 121 205 27 239 41 126 213 156 160 123 80 188 132 252 46 102 72 103
split_gain=1545.02 516.735 255.376 120.636 102.916 84.6097 77.334 59.543 54.0344 50.9376 48.5293 44.4337 41.0417 58.8942 39.6284 36.4921 33.3241 31.2681 29.3298 27.9136 26.9983 27.4859 26.2716 26.0347 25.1941 25.7443 24.6474 24.2882 23.5304 23.3519 22.4488 21.8671 21.8613 21.7817 21.7588 21.6361 21.6336 21.6192 20.9391 20.4987 20.2193 19.7768 19.6804 19.0527 22.755 19.4891 18.8381 18.8303 18.8184 18.6651 24.0466 18.6457 18.2598 19.9297 17.9307 17.741 17.5485 18.8065 17.379 17.2707 17.0704 17.0492
threshold=0.10704457387328149 0.63916653394699108 -2.1413425207138057 -0.27619822323322291 -0.035865908488631242 0.0041277211857959637 11.037646293640138 0.92662581801414501 0.94676291942596447 0.43883609771728521 -1.1930965781211851 0.44277635216712957 -0.76890477538108815 -1.4581801295280454 -0.66647136211395253 0.23234693706035617 1.1448621749877932 -0.58427509665489186 -1.1030287146568296 -0.15690091997385022 1.4207347035408022 -0.30052758753299708 -0.16318744421005246 -0.054502263665199273 0.21107718348503116 0.0099345836788415926 -1.554334223270416 0.49735590815544134 0.38926817476749426 1.1344655752182009 0.06741689890623094 0.83498004078865062 1.5352475047111513 1.4115117192268374 0.019976973533630375 0.55637067556381237 -0.82673195004463185 -1.0650739669799802 -0.41739664971828455 0.49735590815544134 0.96443727612495433 0.023661825805902485 1.3181777000427248 1.3860272169113161 0.15316930413246158 0.46716947853565222 0.73306360840797435 -0.24331214278936383 0.16566143929958346 0.089172475039958968 0.1933500021696091 -0.6386854052543639 0.92414504289627086 0.32183235883712774 -0.81060937047004689 0.033100266009569175 0.49365580081939703 0.49343360960483557 1.5854508280754092 1.037436902523041 1.5226708650588991 -0.25254812836647028
decision_type=2 2 2 2 2 2 2 2 2 2 2 2 2 2 2 2 2 2 2 2 2 2 2 2 2 2 2 2 2 2 2 2 2 2 2 2 2 2 2 2 2 2 2 2 2 2 2 2 2 2 2 2 2 2 2 2 2 2 2 2 2 2
left_child=1 5 7 6 9 10 14 18 12 36 43 28 -9 41 16 35 23 -8 46 52 21 38 -23 -3 25 32 -19 33 40 59 -28 -30 -11 -15 -12 58 -4 -17 -7 -36 -5 -14 -43 44 45 -1 60 -38 -10 -21 -51 -20 53 -6 -49 -32 57 -53 -13 -27 -2 -56
right_child=2 3 4 11 19 20 17 8 48 24 34 15 13 27 -16 37 -18 26 51 49 -22 22 -24 -25 -26 29 30 -29 31 -31 55 -33 -34 -35 39 -37 47 -39 -40 -41 -42 42 -44 -45 -46 -47 -48 54 -50 50 -52 56 -54 -55 61 -57 -58 -59 -60 -61 -62 -63
leaf_value=-4.9342387244988649e-05 -0.0004973642278000305 0.00045774293532614956 1.0536679687275225e-05 0.00018727138920208663 -0.0001492180829572417 7.2368162739752713e-05 0.00053669771511299837 -0.00028327623402389635 -0.00053911538788605309 -0.00022788446815833635 -5.5496496338326286e-05 0.00052714717281047356 -0.00042413002229553038 -0.0005297746241257487 0.00019636744705567115 -0.00030050868937781482 0.00010203127768427981 -2.5865367912201326e-05 4.6386139229695379e-05 -2.6641217433086978e-05 -4.0157384503674229e-05 -6.3855630199143315e-06 8.4658116455238697e-05 0.00038879131841297994 -4.284821443778043e-06 -9.1621335530772799e-05 0.0002590792506438684 -0.00029649197506035496 0.00010180721575297568 -0.00049478804827021554 0.00090513591633310905 -0.00032761260014125968 4.3822796043826459e-05 -0.00030948228528841391 -7.8258492479936028e-06 0.00027485120825732339 -0.00026179649538826856 0.00030684007276715635 0.00015278892245129024 0.00017556498218828032 3.8715365505835536e-05 -0.001081237718506996 -0.00062104622321093594 -0.00035338504161727826 0.00022695915834214492 0.0001423755551182547 -8.5760644720113253e-05 0.00010812658831393694 -0.00018824717017085752 6.5335426779093643e-05 0.00057695393184710247 -0.00025013119465568855 5.8946830197244041e-05 -4.9532799763051985e-06 -3.012188937632546e-05 0.00083513234358970653 -4.2683308999038756e-05 -4.5779508532297811e-05 -7.6685453797732114e-05 -0.00027630979528506737 -0.00011619514235177958 -0.00014314556825637898
leaf_weight=8143 8900 22435 26423 28648 29281 57467 5201 11050 3836 91351 115938 11781 1529 23784 31186 2137 5458 602 5139 43309 22490 47472 58560 16107 9811 49675 1117 10666 13874 4361 6765 3882 3351 4460 40171 4241 7996 17718 90873 10408 11291 7052 1272 1086 10723 8388 3037 5433 14077 31044 1686 22200 8890 14117 18457 4080 9605 6516 770 9066 2211 25636
leaf_count=8143 8900 22435 26423 28648 29281 57467 5201 11050 3836 91351 115938 11781 1529 23784 31186 2137 5458 602 5139 43309 22490 47472 58560 16107 9811 49675 1117 10666 13874 4361 6765 3882 3351 4460 40171 4241 7996 17718 90873 10408 11291 7052 1272 1086 10723 8388 3037 5433 14077 31044 1686 22200 8890 14117 18457 4080 9605 6516 770 9066 2211 25636
internal_value=-4.24619e-06 0.000115178 -0.000157014 0.000280663 -0.000107499 4.94548e-05 0.000375952 -0.00029594 -0.000363312 -0.000151278 -9.95602e-06 0.000186684 -0.000417141 -0.000463707 0.000323486 0.000288228 0.000395683 0.000597427 -0.000204887 -2.16171e-05 9.12948e-05 0.000102235 5.63277e-05 0.000434321 -0.000188807 -0.000200191 0.000698583 -0.000398063 0.000122037 -0.000141615 0.000735593 8.80556e-06 -0.000239133 -0.00045556 -3.42357e-05 0.000416331 -7.62483e-05 0.000179435 0.000134997 3.01082e-05 0.000172183 -0.00072185 -0.000794009 0.000132422 0.000151904 6.46289e-05 -0.000352559 -0.000116772 -0.000183089 2.38473e-05 9.10024e-05 -0.000156607 -8.78712e-05 -0.000119425 -8.94633e-05 0.000787641 -0.000184893 -0.000231038 0.000494378 -0.000121892 -0.000423757 -0.000114418
internal_weight=1.17423e+06 659012 515221 187293 379887 471719 92951 135334 77726 251560 194857 94342 59813 48763 75186 36647 44000 17765 57608 128327 276862 254372 106032 38542 167615 157804 12564 38910 57695 63102 11962 17756 94702 28244 166517 16792 83945 19855 148340 50579 39939 9853 8324 28340 27254 16531 14148 57522 17913 76039 32730 43460 52288 43398 49526 10845 38321 28716 12551 58741 11111 44093
internal_count=1174233 659012 515221 187293 379887 471719 92951 135334 77726 251560 194857 94342 59813 48763 75186 36647 44000 17765 57608 128327 276862 254372 106032 38542 167615 157804 12564 38910 57695 63102 11962 17756 94702 28244 166517 16792 83945 19855 148340 50579 39939 9853 8324 28340 27254 16531 14148 57522 17913 76039 32730 43460 52288 43398 49526 10845 38321 28716 12551 58741 11111 44093
is_linear=0
shrinkage=0.0037237


Tree=2
num_leaves=63
num_cat=0
split_feature=213 217 217 235 213 217 251 139 217 42 239 213 162 235 126 189 166 145 259 95 165 3 61 217 228 225 139 154 251 239 130 185 126 243 163 43 153 48 171 259 140 130 3 55 61 78 111 259 71 254 204 131 254 86 17 89 89 171 213 126 95 243
split_gain=1322.09 466.589 305.572 141.91 118.883 105.511 67.545 67.0131 58.6985 52.9403 47.6737 46.908 38.6728 34.8299 34.4889 31.7878 30.1294 34.3241 27.9314 27.5551 27.4484 27.3447 25.942 25.8069 24.9578 24.2998 23.3386 23.295 23.0854 22.5431 21.6917 21.5088 21.2673 20.8765 20.5993 20.3067 19.8375 20.1654 19.6365 19.3943 19.3821 19.6208 20.7946 19.367 19.1606 19.9077 18.9798 21.2378 18.6102 18.5954 18.529 20.5385 18.4874 18.3855 18.2984 18.2584 18.0752 18.0413 17.8036 19.2399 17.4758 17.3361
threshold=-0.021682146936655041 0.1061033494770527 -0.11744309589266776 0.24727972596883777 -0.15762341767549512 0.021287478506565097 -1.4156560301780698 -0.26224648952484125 0.28848895430564886 0.18521500378847125 0.059458369389176376 0.085587639361619963 0.16559389978647235 0.13921216875314715 -0.063319422304630266 0.55013841390609752 0.05057970620691777 -0.70236909389495839 0.3943715244531632 0.10608102381229402 -0.34040205180644983 -0.037374930456280701 -0.20330461114645001 -0.21839594841003415 -0.6317479908466338 -1.5902976393699644 1.1632875800132754 3.7085992097854619 1.5650832056999209 0.067154698073863997 -0.066598221659660325 -0.88107809424400318 0.22027924656867984 -0.015449008438736199 0.058033784851431854 1.5005957484245303 0.073510576039552702 0.82164907455444347 -0.88387531042098988 -0.40469041466712946 -0.46144530177116388 1.7484472393989565 1.8449743986129763 -0.41633121669292444 -0.22591662406921384 0.13275668770074847 -0.79299232363700856 -0.21407125890254972 0.84529021382331859 0.07435046881437303 -0.3986863493919372 -0.47588287293910975 -0.58555629849433888 -0.64981395006179798 0.45091363787651068 -0.93992915749549855 0.23811131715774539 -1.4697107076644895 0.040577273815870292 -0.081102527678012834 -0.11074952036142348 0.16728474944829944
decision_type=2 2 2 2 2 2 2 2 2 2 2 2 2 2 2 2 2 2 2 2 2 2 2 2 2 2 2 2 2 2 2 2 2 2 2 2 2 2 2 2 2 2 2 2 2 2 2 2 2 2 2 2 2 2 2 2 2 2 2 2 2 2
left_child=2 5 6 20 14 11 12 8 27 13 21 16 23 18 40 -10 17 -2 50 29 -3 30 24 -1 -11 35 -9 36 46 31 34 -13 -20 -21 -7 -8 37 -5 49 -16 41 42 -4 -42 -41 -46 47 -12 60 -31 51 -6 -24 -33 -40 -52 -27 -19 59 -48 -32 -28
right_child=1 3 4 7 9 10 25 26 15 22 28 19 -14 -15 39 -17 -18 57 32 33 -22 -23 52 -25 -26 56 61 -29 -30 38 48 53 -34 -35 -36 -37 -38 -39 54 44 43 -43 -44 -45 45 -47 58 -49 -50 -51 55 -53 -54 -55 -56 -57 -58 -59 -60 -61 -62 -63
leaf_value=-0.0014026986820002217 4.6378142644919309e-05 -0.00014986326552803838 -0.00040716317117191637 0.00059381039487768226 -0.00023465049175443449 -3.3467323005642331e-05 -0.00072273442486011318 0.00048121354590482967 0.001274170339450334 0.0002627156622528364 -0.00020604778480158421 -8.7061789924999569e-05 -0.00048967530111499867 9.8387999504197728e-05 -0.00043492017445623656 0.00099746589964671293 5.4578320477309585e-05 -0.00033991306615839306 -2.1095808994457792e-05 -9.638295943957389e-05 0.00026414499604028916 -1.3424549582720388e-05 -0.00022074984839284863 -0.00083583495712455337 -0.00025182418858814927 -0.00042984773781292698 -8.3150719536729815e-05 0.0012012530806703016 0.00060835320275718979 8.7576127199570514e-05 0.0002089853484985108 0.00029862291788192364 0.00029816245192880865 0.00015513508419448893 0.00019871950081443938 -5.2998520373132418e-05 0.0003804544394020896 0.00041901917518250746 0.00019226605830188878 -0.00027912913927860062 -0.00010711606006223816 0.00044945899343943994 -0.0010743586951548936 -0.00031841042372317133 -0.00015603454692785884 7.1745758068714855e-05 -2.0143008889730481e-05 0.00023170178746023085 0.00042618236803447865 0.00042388729179780382 7.7072560644552386e-05 8.5824925483177463e-05 -6.0822939960987769e-05 6.1331748393441348e-05 9.0935199410188004e-06 -0.0001195891898266052 -0.00018506459107308989 -9.0558909538039864e-05 0.00029183885654913662 0.00025709442540261036 8.0764359898140032e-05 0.00061728171363795658
leaf_weight=4884 36085 7650 14294 25435 4605 18390 11313 24732 5718 2255 5082 10506 5212 36644 13387 1538 79807 4697 9138 30735 11027 29898 16589 6480 46970 15049 4640 1496 4765 3143 19978 7272 6468 28776 15281 1539 10345 4148 33598 23307 10266 623 2314 43841 36590 14276 8503 10690 6721 7027 12337 21718 61809 33614 11815 92155 9331 66253 54001 10648 14832 2953
leaf_count=4884 36085 7650 14294 25435 4605 18390 11313 24732 5718 2255 5082 10506 5212 36644 13387 1538 79807 4697 9138 30735 11027 29898 16589 6480 46970 15049 4640 1496 4765 3143 19978 7272 6468 28776 15281 1539 10345 4148 33598 23307 10266 623 2314 43841 36590 14276 8503 10690 6721 7027 12337 21718 61809 33614 11815 92155 9331 66253 54001 10648 14832 2953
internal_value=8.99027e-07 0.000148606 -0.000183026 0.000458053 -0.000142801 9.27156e-05 -0.000533847 0.000547098 0.00066255 -8.68333e-05 0.000183296 4.17236e-05 -0.000795458 -3.32046e-05 -0.000252164 0.00107202 -1.16773e-05 -6.56042e-05 -6.71543e-05 0.000101711 7.12838e-05 0.000111275 -0.000163678 -0.000956975 -0.000252244 -0.000417021 0.000372853 0.000590467 0.000263974 0.000148875 0.000161262 7.43853e-05 0.000129062 1.67613e-05 6.81462e-05 -0.000590901 0.000567302 0.000632617 0.000217558 -0.000186542 -0.000332553 -0.000476985 -0.000509366 -0.000286336 -0.000155218 -0.000101429 0.000245902 9.03273e-05 0.000236501 0.000413413 -9.06418e-05 2.5571e-05 -0.000107931 0.000125464 0.000173441 -0.000120011 -0.000324853 -0.000128402 0.000279302 0.000149558 0.000190269 0.000132587
internal_weight=1.17519e+06 651799 523394 99682 469586 552117 53808 81005 48680 310688 198789 353328 16576 183065 158898 7256 186842 107035 146421 166486 18677 105100 127623 11364 49225 37232 32325 41424 93689 106975 75202 51392 15606 59511 33671 12852 39928 29583 55583 87560 71338 17231 16608 54107 74173 50866 88924 15772 41531 10170 130815 26323 78398 40886 45413 104492 24380 70950 73152 19151 34810 7593
internal_count=1175193 651799 523394 99682 469586 552117 53808 81005 48680 310688 198789 353328 16576 183065 158898 7256 186842 107035 146421 166486 18677 105100 127623 11364 49225 37232 32325 41424 93689 106975 75202 51392 15606 59511 33671 12852 39928 29583 55583 87560 71338 17231 16608 54107 74173 50866 88924 15772 41531 10170 130815 26323 78398 40886 45413 104492 24380 70950 73152 19151 34810 7593
is_linear=0
shrinkage=0.00491411


Tree=3
num_leaves=63
num_cat=0
split_feature=0 217 217 235 235 235 217 217 205 0 147 3 0 225 217 147 234 6 212 97 205 93 42 74 139 3 259 50 0 217 93 154 204 79 154 147 195 165 72 139 139 89 139 76 34 20 20 0 97 184 93 115 40 21 0 154 87 71 254 50 262 3
split_gain=1398.33 442.883 321.222 163.888 111.447 101.681 87.495 63.3441 57.7661 52.9771 45.9897 42.2383 37.6222 35.1346 34.5181 33.5599 30.4717 29.6376 28.9574 28.7511 26.9966 26.8761 27.3357 26.6092 24.7984 24.6186 23.2571 28.4035 22.9461 21.602 21.4251 20.8623 20.7354 21.2403 20.3646 20.2622 26.3783 22.0509 23.2101 19.9487 19.4992 24.49 19.4769 18.3557 17.5806 17.3769 19.4281 17.323 19.424 18.7235 17.8164 17.192 18.3947 16.8182 16.6346 17.9135 20.3457 16.5074 16.2251 18.1754 17.4061 16.6184
threshold=0.10704457387328149 0.12268139049410821 -0.11744309589266776 0.28030037879943853 0.13095672428607943 0.029643672518432144 0.32224820554256445 1.0000000180025095e-35 -0.96515062451362599 0.51169207692146312 0.70293629169464122 0.17125044018030169 -0.25801301002502436 0.39655590057373052 -0.21839594841003415 -1.5441291928291319 0.89850941300392162 -0.98378041386604298 1.0382797718048098 0.65760925412178051 1.0381856560707095 0.44061444699764257 -1.176026403903961 0.89322540163993847 1.4481344819068911 1.8449743986129763 -0.10600369423627852 0.15454772859811786 -2.0634618997573848 -0.065521433949470506 0.52209773659706127 2.2048803567886357 -1.0372616648674009 -1.1847810149192808 -0.43271817266941065 -1.3338574171066282 1.0666184425354006 0.56724551320076 0.037162471562623985 -0.68154093623161305 0.19358196109533313 0.11020260676741601 1.4207347035408022 0.037024114280939109 -1.7165987491607664 -1.0271275043487547 -0.81163388490676869 -0.35181997716426844 0.97171404957771312 0.63241147994995128 -0.30590181052684778 1.4647923111915591 1.1483098864555361 -0.089041434228420244 -1.6218717098236082 -0.68343612551689137 0.49309165775775915 -0.71616971492767323 0.48074074089527136 2.1414402723312382 -1.1222254633903501 1.4330374598503115
decision_type=2 2 2 2 2 2 2 2 2 2 2 2 2 2 2 2 2 2 2 2 2 2 2 2 2 2 2 2 2 2 2 2 2 2 2 2 2 2 2 2 2 2 2 2 2 2 2 2 2 2 2 2 2 2 2 2 2 2 2 2 2 2
left_child=1 4 8 16 11 9 10 24 14 29 17 15 19 58 18 -1 45 34 51 20 30 22 -8 26 47 43 -17 -28 -24 -4 -9 42 -7 -34 -5 36 -31 -37 -39 -25 -15 -42 -19 -10 -43 -3 -47 48 -6 -50 57 52 -2 -16 -13 -56 -57 -49 59 61 -61 -11
right_child=2 3 5 6 7 32 21 12 25 13 -12 54 -14 40 53 23 -18 31 -20 -21 -22 -23 28 39 -26 -27 27 -29 -30 35 -32 -33 33 -35 -36 37 -38 38 -40 -41 41 44 -44 -45 -46 46 -48 50 49 -51 -52 -53 -54 -55 55 56 -58 -59 -60 60 -62 -63
leaf_value=0.00021343332306789352 -0.00075490050689963248 -0.00039210597041021129 -0.00020414845131898882 -0.00031198763542680016 0.00013075478481434395 0.00011089618837948305 0.00055556485628473846 0.00025406014459192916 -0.00035849074469601844 -0.00021333756073711193 0.00033495196294113633 0.00037136437508299391 7.8447048788657945e-05 -0.00017839586953558294 -0.00067713722762745136 -4.3086046964369758e-05 0.00021665658842426986 0.00049319351001391495 -0.00032010728601583388 0.00011783327209841912 2.2827023392939126e-05 0.0010352468830299674 0.0020203505428433256 0.00045108437100782383 -0.00010962394501247454 -0.00061235929266325933 1.0107959930200676e-05 0.00013003979088447134 0.00093604551234536203 7.4184418051756441e-05 0.00021433564643964212 0.00090381011987764374 -0.00016524523860144932 -1.6481716901112893e-05 0.00045625817095643669 -9.7238086138831494e-05 -0.00046367161514005025 9.1042066195873978e-05 -0.00014022089044164312 0.00011616102722442905 1.2555665549042182e-05 0.00037903009071485477 -6.8390453949004892e-05 -0.00013750346447099693 -0.0002155408091676684 0.00042622542553774834 -0.00010459100802606739 -6.2616844624542871e-05 -0.00016880568387412081 0.00018059769152505559 -6.315912880434727e-05 -0.0006717443759945758 -0.0011846140898320663 -0.00043166208185346685 5.8869200406361843e-05 -0.00010355509173493918 2.6606723507014065e-05 9.6702175152529982e-05 -8.8410750863760642e-05 -0.00020690900202804835 0.00082352984037506927 -0.00038682239089017059
leaf_weight=8915 2394 1654 12277 715 73982 16076 631 73591 8296 80258 19490 2292 54514 33826 7997 36232 8410 25866 1133 27407 8457 2426 1153 4011 14597 6670 67429 37520 2605 13779 21329 2528 13115 96269 8629 81542 880 15461 9370 5148 23910 929 716 12357 18537 633 5471 5530 6753 4559 18713 772 4420 8453 12405 51807 19019 23818 11015 796 689 33662
leaf_count=8915 2394 1654 12277 715 73982 16076 631 73591 8296 80258 19490 2292 54514 33826 7997 36232 8410 25866 1133 27407 8457 2426 1153 4011 14597 6670 67429 37520 2605 13779 21329 2528 13115 96269 8629 81542 880 15461 9370 5148 23910 929 716 12357 18537 633 5471 5530 6753 4559 18713 772 4420 8453 12405 51807 19019 23818 11015 796 689 33662
internal_value=3.54202e-06 0.000121878 -0.00014789 0.000390622 8.42355e-05 -0.000115224 0.000477838 0.000130395 -0.000435453 -0.000150324 0.000428619 2.13587e-05 0.000178204 -0.00018971 -0.000569899 5.8716e-05 4.07685e-05 0.000506661 -0.000768679 0.00021393 0.000243594 0.000894562 0.00107776 4.49392e-05 7.04628e-05 -0.000311241 3.1729e-05 6.10118e-05 0.00120386 -9.01014e-05 0.000262313 0.000568024 -2.08973e-05 -4.00655e-05 0.000314463 -7.42782e-05 6.05688e-05 -9.2936e-05 7.96443e-06 0.000247592 -0.000124282 -6.95578e-05 0.000535089 -0.000244261 -0.000171706 -0.000133897 -3.68234e-05 8.71038e-05 0.000120313 -2.87882e-05 2.8e-05 -0.000855308 -0.000918013 -0.000463867 -4.81142e-05 -5.71741e-05 -8.10409e-05 8.77367e-05 -0.000229597 -0.00024321 0.000179609 -0.000248797
internal_weight=1.17384e+06 658955 514883 80927 578028 462391 64759 333250 52492 336931 57944 244778 185298 203622 25169 159255 16168 38454 8719 130784 103377 6815 4389 150340 147952 27323 141181 104949 3758 133309 94920 29110 125460 109384 9344 121032 14659 106373 24831 9159 77202 43376 26582 20653 19466 7758 6104 133355 85294 11312 48061 7586 6814 16450 85523 83231 70826 29348 126420 115405 1485 113920
internal_count=1173838 658955 514883 80927 578028 462391 64759 333250 52492 336931 57944 244778 185298 203622 25169 159255 16168 38454 8719 130784 103377 6815 4389 150340 147952 27323 141181 104949 3758 133309 94920 29110 125460 109384 9344 121032 14659 106373 24831 9159 77202 43376 26582 20653 19466 7758 6104 133355 85294 11312 48061 7586 6814 16450 85523 83231 70826 29348 126420 115405 1485 113920
is_linear=0
shrinkage=0.00387852


Tree=4
num_leaves=63
num_cat=0
split_feature=0 237 225 0 249 237 237 139 145 249 3 237 237 139 0 24 200 239 42 163 244 249 0 163 204 138 131 126 41 208 221 249 205 126 0 136 0 163 241 100 225 0 87 244 193 138 46 221 241 221 200 225 239 13 238 69 190 183 200 221 252 16
split_gain=1326.34 295.937 248.433 134.015 131.06 90.644 76.866 75.4599 65.5703 53.5292 52.9012 49.9961 49.1206 41.9337 39.1777 41.3467 39.0662 36.2353 34.3416 33.0357 31.0697 29.8747 29.2286 28.6409 27.198 25.6567 24.8233 24.8446 24.2531 24.0269 27.5425 23.2468 22.9469 22.5023 21.7138 21.6655 21.0876 21.0003 20.9438 20.7074 20.0139 23.5821 20.7809 19.9442 22.1034 23.7841 19.5407 19.5187 19.2273 19.8931 19.1236 18.0663 19.6772 17.7437 17.608 17.5931 17.6153 17.2411 16.6329 16.4662 16.3352 16.2873
threshold=0.07056134939193727 0.2683680951595307 -1.2183140516281126 0.62983399629592907 0.09009395539760591 0.096182383596897139 -0.21463939547538755 -0.26224648952484125 -1.125254154205322 0.29007124900817877 -0.014971862081438301 0.10701291263103486 -0.041412884369492524 0.3010119646787644 0.88758927583694469 1.0651029944419863 0.002996485680341721 -0.032779654487967484 1.3091502189636233 -0.6131395399570464 0.35307589173316961 -0.019051872193813321 -0.62655377388000477 0.11745543405413629 -1.0947756767272947 1.6781667470932009 0.96598306298255932 0.57724490761756908 -1.3297855854034422 -0.53142619132995594 0.36785867810249334 -0.55347287654876698 -1.0783392786979673 -2.2371387481689449 -0.34271354973316187 1.3121846318244936 -0.46797233819961542 -0.31946031749248499 0.24670118093490603 -0.35186049342155451 -0.36510309576988215 -0.96089857816696156 -0.8859424591064452 -0.1415993273258209 0.69000738859176647 1.0401484370231631 1.3448879122734072 -0.084485441446304307 0.64129105210304271 -0.22021009773015973 0.0028179895598441367 -0.53723302483558644 -0.2123405113816261 -1.4266597032546995 0.018691875040531162 0.32406231760978704 -0.98835560679435719 -0.1924742981791496 0.0045128921046853074 -0.54685628414154042 -0.052907932549715035 0.97190189361572277
decision_type=2 2 2 2 2 2 2 2 2 2 2 2 2 2 2 2 2 2 2 2 2 2 2 2 2 2 2 2 2 2 2 2 2 2 2 2 2 2 2 2 2 2 2 2 2 2 2 2 2 2 2 2 2 2 2 2 2 2 2 2 2 2
left_child=1 4 6 11 8 13 14 9 28 43 23 16 25 22 -2 -16 31 48 -19 -7 -9 -13 37 36 -12 39 27 -18 -1 30 -11 -4 -17 -24 35 -21 50 -6 -33 -5 41 -15 -43 -3 45 -45 51 -27 -14 -50 -10 -30 -53 -42 -40 -23 -57 -25 -26 -34 -39 -31
right_child=2 7 3 12 5 19 -8 20 10 29 24 21 17 40 15 32 26 18 -20 34 -22 55 33 57 58 47 -28 -29 46 61 -32 38 59 -35 -36 -37 -38 60 54 -41 53 42 -44 44 -46 -47 -48 -49 49 -51 -52 52 -54 -55 -56 56 -58 -59 -60 -61 -62 -63
leaf_value=-9.2870647553896433e-05 -0.00025771248902209409 0.00012747095236539458 -0.00037146048477456538 -0.00015364681956845714 0.00012125014295172701 0.00012162860968259344 -0.00027298764973012792 1.7300319712017643e-05 6.580057558795062e-05 0.0005913312456930532 0.00016109085112491002 -3.3334913687447732e-05 -0.00021247886077009118 9.4260605158965862e-05 -0.00057500116559080182 -0.0011450777754399772 -4.0474880815262144e-05 -0.00011327861847290182 8.7021549986663084e-05 0.00029294762351255994 0.00031832361898423347 0.00013443240455563989 -0.00054766379501336763 4.7326310811056234e-05 -5.202527140252356e-05 -0.00080863973615438246 0.0005843115602876429 0.00021859615728118362 3.181976287327667e-05 0.00058959382829285349 0.0013062789732939824 -9.9373786026444208e-05 -0.0012135135318446018 7.3191682106390208e-05 0.00013803703040077728 0.00055304867500453371 -1.0453283541504376e-05 0.00021282084115169773 -7.400500738140604e-05 -0.0002962445433673036 -0.00024373206164689807 -0.0005075602797265052 -7.3946937439018921e-05 0.00030769487869491513 0.0001288778842449378 0.00060903824593669029 -6.829540416327496e-05 -0.00035936895677165473 0.00047612572612754572 -0.00012534196093298651 0.0002979393699365805 -1.5487930020132492e-06 0.00017111010995624494 0.00010967287731020517 2.7558222226958768e-05 -0.00047263676035602843 3.9825389024793254e-05 0.0001709462492708461 0.00015252447702724533 -0.0004761815714262189 0.00036778665355467494 0.0011519641218801847
leaf_weight=5054 6998 3323 1493 19451 16245 18232 32335 7883 47888 1396 10634 40963 66543 10959 10096 2980 9567 52627 12721 43051 14582 20848 604 25010 106610 2258 1486 3544 9296 3205 1824 114290 864 32994 12770 5818 65650 11168 43282 36570 2738 2136 10828 12506 2615 6266 4048 2512 1610 15364 3292 5084 43657 38670 23712 1099 12117 33742 3589 2325 12289 862
leaf_count=5054 6998 3323 1493 19451 16245 18232 32335 7883 47888 1396 10634 40963 66543 10959 10096 2980 9567 52627 12721 43051 14582 20848 604 25010 106610 2258 1486 3544 9296 3205 1824 114290 864 32994 12770 5818 65650 11168 43282 36570 2738 2136 10828 12506 2615 6266 4048 2512 1610 15364 3292 5084 43657 38670 23712 1099 12117 33742 3589 2325 12289 862
internal_value=-7.87784e-07 0.000107847 -0.000129411 -0.000103712 8.46313e-05 0.00015272 -0.000352071 0.000355798 4.36882e-05 0.000465657 2.11795e-05 -5.2226e-05 -0.00017057 9.82555e-05 -0.000506525 -0.000601604 -8.16112e-05 -0.000136058 -7.3837e-05 0.000247152 0.000198943 2.49842e-05 0.000156028 6.01718e-05 -3.54219e-05 -0.000254949 9.32146e-05 4.37091e-05 0.000142949 0.000731685 0.000961887 -9.56139e-05 -0.00083 7.93371e-05 0.000286131 0.000320018 2.82368e-05 0.000220732 -9.19586e-05 -0.000233591 3.33214e-05 -4.74768e-05 -0.000149156 0.000386789 0.000426321 0.000468648 0.000162062 -0.000503811 -0.000184652 -7.83006e-05 8.17692e-05 0.000178576 0.000205704 8.01716e-05 -4.24159e-05 0.000101996 1.0641e-06 0.000123548 -5.1861e-05 -0.000615548 0.00028827 0.00054674
internal_weight=1.17417e+06 636518 537655 482057 582056 218502 55598 54462 363554 31997 296415 272401 209656 138631 23263 16265 197374 148865 65348 79871 22465 75027 73300 175582 120833 60791 14597 13111 67139 7287 3220 182777 6169 33598 61639 48869 116830 39702 181284 56021 65331 23923 12964 24710 21387 18772 62085 4770 83517 16974 51180 58037 48741 41408 66994 34064 13216 58752 110199 3189 23457 4067
internal_count=1174173 636518 537655 482057 582056 218502 55598 54462 363554 31997 296415 272401 209656 138631 23263 16265 197374 148865 65348 79871 22465 75027 73300 175582 120833 60791 14597 13111 67139 7287 3220 182777 6169 33598 61639 48869 116830 39702 181284 56021 65331 23923 12964 24710 21387 18772 62085 4770 83517 16974 51180 58037 48741 41408 66994 34064 13216 58752 110199 3189 23457 4067
is_linear=0
shrinkage=0.0035171


Tree=5
num_leaves=63
num_cat=0
split_feature=213 219 234 213 250 7 225 80 47 93 27 129 219 62 222 188 235 219 235 139 212 132 67 188 145 226 229 62 251 17 213 160 105 239 79 102 211 234 43 43 43 225 27 132 209 239 87 145 226 234 87 251 43 102 201 81 251 252 44 251 42 222
split_gain=1184.29 308.704 306.524 140.875 127.54 94.623 68.1387 49.0891 47.8158 47.4226 42.8373 38.5232 38.4646 37.4809 34.3254 50.4078 31.2458 31.821 29.1491 29.0782 29.0741 27.9503 27.7776 26.0716 25.8452 25.0546 24.3268 24.0574 22.8578 22.1717 21.827 21.7871 21.6477 21.5021 21.4319 21.0496 20.3531 19.7893 19.5552 51.5353 21.2444 23.8795 19.4092 19.081 19.0366 18.9572 18.9391 26.5605 18.891 25.0093 18.4882 18.0711 18.0392 17.8765 17.8328 17.7196 17.7189 17.4895 17.4712 17.4511 17.3977 17.119
threshold=0.02305538579821587 1.0284824967384341 -1.4676305055618284 -0.1467606648802757 0.57394304871559154 -1.013407766819 -2.0267585515975948 -0.3644860684871673 -1.304772615432739 0.50507766008377086 1.5951317548751833 -0.2466277480125427 0.074706729501485838 0.24653069674968722 1.0027083158493044 0.033100266009569175 0.23827409744262698 0.0210858378559351 0.029643672518432144 1.2572042942047121 0.87806248664855968 0.028671083971858028 0.5262892246246339 0.29404106736183172 -1.3472707867622373 -0.00067382000270299603 -0.91144463419914235 0.5185680389404298 0.25012765824794775 -0.60919126868247975 0.18984915316104892 1.0673502683639529 -0.078327652066946016 0.18299675732851031 -2.8750365972518916 1.5115544795989992 0.44722807407379156 0.44113357365131384 0.057959046214818961 0.054744161665439613 0.0705670900642872 -1.0000000180025095e-35 0.59065502882003795 -0.23036516457796094 1.0743079185485842 0.14970587193965915 0.20776896178722384 1.2693467736244204 -0.0073993594851344815 0.44113357365131384 -0.10533820465207099 -1.7015159130096433 0.10514184087514879 -0.72199314832687367 0.5494804084300996 -0.96831965446472157 0.10719770938158037 -0.87392118573188771 1.3515816330909731 1.5780768990516665 -0.7058669626712798 0.0262764310464263
decision_type=2 2 2 2 2 2 2 2 2 2 2 2 2 2 2 2 2 2 2 2 2 2 2 2 2 2 2 2 2 2 2 2 2 2 2 2 2 2 2 2 2 2 2 2 2 2 2 2 2 2 2 2 2 2 2 2 2 2 2 2 2 2
left_child=2 4 6 18 11 7 10 31 33 12 28 35 42 25 59 60 24 43 21 30 22 26 27 29 -13 46 -4 51 -1 -24 -14 45 -32 38 44 37 -27 -2 39 50 41 -40 -6 -18 -15 -3 47 -10 -23 -50 -5 -8 -42 -44 -20 -25 -38 -45 -26 -9 -16 -36
right_child=1 5 3 8 9 -7 20 14 13 -11 -12 16 19 34 15 -17 17 -19 54 -21 -22 48 23 55 58 36 -28 -29 -30 -31 32 -33 -34 -35 61 -37 56 -39 40 -41 52 -43 53 57 -46 -47 -48 -49 49 -51 -52 -53 -54 -55 -56 -57 -58 -59 -60 -61 -62 -63
leaf_value=-0.0011490780677102001 -1.2896544222679251e-05 0.00050791928037109495 -0.00072553198199529754 0.00028267970138765865 0.00012639326739864569 0.00035765301279497785 -0.00095889738390839791 0.00057087718269887048 -0.00020683448866151401 0.00015117659445791612 -0.00040469226469354964 0.00024457706003021295 0.00030721407061202815 0.00020644746887803621 0.0011397287706025737 0.00088820009284620719 -2.5011131774020808e-05 0.00025868286055717282 -8.8584055975905325e-05 -2.2500211845399233e-05 -9.4272477480885351e-05 -0.00032581271587370583 -0.00033317722188959512 -0.0012987557526762839 5.2116497658470572e-05 -9.6099597178382309e-05 -0.00028466041703535878 -4.2677431184512728e-05 -0.00037050257291392738 -0.00097971972225092551 0.00063069607457204714 -0.00020164491524957563 0.00037604942292485333 0.00027435391702019759 -6.882000196140548e-05 -0.00030670812738231985 -6.0328835809514009e-05 0.00015035891136461278 0.00017880436315134538 0.0012535533400205464 0.00012257320128233396 -0.00040994867675542171 0.00059235451504900238 -0.0002410902795160523 0.0012410471797164495 0.0010254874642692707 -8.985692159665541e-05 5.9826212247812587e-05 -0.00021322236584499601 3.3008012865919057e-05 -2.1331650825468448e-05 -0.00038801975444036985 -7.511091510909617e-05 0.00025071159288545235 0.00048546236405936228 -0.00030898127259856736 0.00012229515876329249 0.00017495006177305791 -0.00012416549837152572 0.00094918502199584261 0.0015671632409042353 4.0372486854455363e-05
leaf_weight=12975 87676 6837 5306 6526 37343 23134 954 7229 65930 40271 3478 9069 33911 1388 1531 3756 19489 43201 16072 4093 7042 28531 2255 1382 63435 65610 74029 5897 1631 7509 12543 1042 13041 6440 65412 5875 26648 28103 1547 951 15247 3629 3732 2195 652 5228 48811 9006 24886 18082 9139 17639 17385 13312 1438 4203 18498 33254 9916 2669 4366 62559
leaf_count=12975 87676 6837 5306 6526 37343 23134 954 7229 65930 40271 3478 9069 33911 1388 1531 3756 19489 43201 16072 4093 7042 28531 2255 1382 63435 65610 74029 5897 1631 7509 12543 1042 13041 6440 65412 5875 26648 28103 1547 951 15247 3629 3732 2195 652 5228 48811 9006 24886 18082 9139 17639 17385 13312 1438 4203 18498 33254 9916 2669 4366 62559
internal_value=9.95259e-07 0.000188216 -0.000145725 -0.000108448 0.000143746 0.000555003 -0.000486205 0.000736161 -5.78269e-05 0.00026384 -0.000759008 8.08235e-05 0.000316685 -8.04575e-05 0.000902548 0.00112592 0.000129206 0.00019218 -0.000236292 0.000404052 -0.000380681 -0.000259707 -0.000435384 -0.000610306 5.40884e-05 -0.000119876 -0.000327345 -0.000325224 -0.000883229 -0.000773791 0.000433338 0.000486926 0.000549195 7.75313e-05 -9.27513e-06 8.92533e-06 -6.26859e-05 2.44825e-05 4.35442e-05 0.000192848 -2.18133e-05 -0.000332511 0.000214318 0.000108507 0.000520765 0.000549722 -0.000170974 -0.000223192 -0.000184493 -0.000114921 0.000120266 -0.000417397 2.71922e-05 0.000360704 -3.39782e-05 -0.00032219 2.24305e-05 0.000180669 2.14208e-05 0.000683193 0.00142849 -1.78262e-05
internal_weight=1.17494e+06 516251 658687 593722 460459 55792 64965 32658 425378 158246 18084 302213 117975 364514 19551 9653 180559 98139 168344 63588 46881 150834 39839 15349 82420 234503 79335 24490 14606 9764 59495 13107 25584 60864 130011 121654 110756 115779 54424 16616 37808 5176 54387 54938 2040 12065 123747 74936 71499 42968 15665 18593 32632 17044 17510 5585 45146 35449 73351 9898 5897 127971
internal_count=1174938 516251 658687 593722 460459 55792 64965 32658 425378 158246 18084 302213 117975 364514 19551 9653 180559 98139 168344 63588 46881 150834 39839 15349 82420 234503 79335 24490 14606 9764 59495 13107 25584 60864 130011 121654 110756 115779 54424 16616 37808 5176 54387 54938 2040 12065 123747 74936 71499 42968 15665 18593 32632 17044 17510 5585 45146 35449 73351 9898 5897 127971
is_linear=0
shrinkage=0.00522041


Tree=6
num_leaves=63
num_cat=0
split_feature=0 250 213 219 256 225 213 95 222 224 42 70 153 219 27 0 132 198 67 122 0 139 70 249 200 70 245 222 153 47 177 200 213 2 200 249 219 157 200 24 261 126 27 185 53 0 134 256 52 52 177 134 177 200 224 256 213 241 70 241 132 130
split_gain=1231.11 409.303 215.708 139.687 90.1282 74.1452 58.7822 54.3388 45.306 37.2531 36.0988 43.2377 43.8408 35.6905 35.4064 34.1087 33.0244 31.7053 30.3528 29.3992 29.3015 28.5442 29.2418 28.31 27.5191 27.1989 25.7126 24.8053 23.622 23.067 22.9066 22.8103 22.0656 21.5624 21.0615 20.9029 20.6594 20.4253 20.2808 20.2717 19.8136 19.3141 19.2422 19.0695 18.9851 18.94 18.6501 18.6225 18.525 18.0471 18.0247 17.5881 17.5438 23.1427 17.4443 17.4166 17.3917 24.694 17.2114 17.1777 17.0517 17.024
threshold=0.10704457387328149 0.5988682508468629 -0.18892471492290494 1.3773693442344668 -0.10944346711039542 -2.0267585515975948 -0.075978815555572496 0.67984622716903698 -0.025314797647297379 -0.10076463222503661 -0.98319071531295765 -0.77114847302436818 -0.86250090599060047 0.3335681706666947 1.5951317548751833 0.43883609771728521 0.3290864378213883 0.10486116632819177 1.2759979963302615 0.83564195036888134 -0.66647136211395253 -0.27619822323322291 -0.43474948406219477 0.084778465330600752 -0.0026463309768587347 -0.31858621537685389 -0.045651376247405999 1.2150984406471255 0.19251631200313571 0.86695653200149547 1.2348693609237673 0.001475340861361474 -0.32973209023475641 2.0384234189987187 0.0015359396929852667 -0.46910731494426722 -0.092211700975894914 -0.29087513685226435 0.002996485680341721 1.0651029944419863 0.58058270812034618 -1.3319450616836546 -1.0524563193321226 0.29552972316741949 0.19293006509542468 -0.64030507206916798 -0.82008615136146534 -0.47016876935958857 -0.86136886477470387 -0.69730633497238148 1.4148272275924685 -1.210644483566284 -0.84518614411354054 -0.00062723230803385366 -0.1140412390232086 0.45440901815891271 0.018399556167423729 -0.82178905606269825 -1.1442340612411497 1.102222263813019 -1.4624731540679929 -0.015263716690242289
decision_type=2 2 2 2 2 2 2 2 2 2 2 2 2 2 2 2 2 2 2 2 2 2 2 2 2 2 2 2 2 2 2 2 2 2 2 2 2 2 2 2 2 2 2 2 2 2 2 2 2 2 2 2 2 2 2 2 2 2 2 2 2 2
left_child=1 4 5 7 9 14 15 8 58 17 48 -12 27 26 25 38 35 -1 55 31 21 22 -10 40 -19 -2 44 -13 -15 -14 32 37 39 -20 36 -7 -28 -8 -4 -27 61 -39 -38 -43 56 -9 -21 -22 -5 -31 -23 -37 -53 -54 -33 -17 57 -6 -3 -42 -48 -11
right_child=2 3 6 10 13 16 19 45 20 23 11 12 29 28 -16 18 -18 24 33 46 47 50 -24 -25 -26 30 34 -29 -30 49 -32 54 -34 -35 -36 51 42 41 -40 -41 59 43 -44 -45 -46 -47 60 -49 -50 -51 -52 52 53 -55 -56 -57 -58 -59 -60 -61 -62 -63
leaf_value=-3.8797361748962106e-05 -0.00044530861796426299 -0.00018461546860139118 -7.2049443898733662e-05 -0.00045412311805786011 -0.00034571596189741059 -0.0005154956399060493 -0.00013386215256065123 0.00022139049304781562 0.00016698160904154565 -9.2437282097806075e-05 0.00024357593926720251 0.00070912150006501484 0.00078289141440051084 0.00025647346064245854 -0.00032909634950099268 -0.00018678742513424673 -0.00019306055926769715 -0.00075649107462725943 -0.00060423079127939095 -0.00032779806408247486 -0.00011965606526564077 0.00030818692661875721 0.00047817801218904616 8.2171012371246276e-05 -0.00024125298465745717 -0.00083926247014024901 2.8415378405255035e-05 0.0014180362655607957 0.00010616607028429192 -0.00029527084959470853 -0.00043494311179512174 -0.00025104820694470624 -0.00065263822369626906 0.00037421099784217497 0.00018734789762108657 -0.00053356445393003824 -1.3691675849582318e-05 -0.0002582999756203391 0.00018974659667790508 -0.0014280569395363847 9.3983466906354736e-05 -7.0274761591980017e-05 0.00015353507957881186 5.5846208933132914e-05 9.9108683079285329e-05 -9.3221373709783951e-05 -0.00030205342504903594 0.00021235738041083777 0.0005537298655762927 0.00065982067717809982 1.3963612803424043e-05 -0.00018866178216438205 -0.00038402604648172649 -0.00021071060046674422 5.2721053512603595e-05 -5.0507377815839584e-06 4.8905400599924523e-05 -1.9157760455163148e-05 0.00013535748382057888 0.00072197618096567684 0.00013236331886420417 -2.7234782273559212e-07
leaf_weight=6749 4509 2587 50658 749 6287 2439 57916 27728 5645 54895 3590 2885 9595 26793 4088 92641 42600 1431 8265 2298 2131 27633 25447 45263 3641 2493 56164 2992 17017 825 2387 2269 3822 765 29769 6386 10445 6422 3864 2690 10185 55791 50745 25598 27802 9129 2265 42891 7342 4069 3969 19337 28267 22593 30247 9711 28556 26161 20494 914 24862 56393
leaf_count=6749 4509 2587 50658 749 6287 2439 57916 27728 5645 54895 3590 2885 9595 26793 4088 92641 42600 1431 8265 2298 2131 27633 25447 45263 3641 2493 56164 2992 17017 825 2387 2269 3822 765 29769 6386 10445 6422 3864 2690 10185 55791 50745 25598 27802 9129 2265 42891 7342 4069 3969 19337 28267 22593 30247 9711 28556 26161 20494 914 24862 56393
internal_value=4.73711e-06 0.000127623 -0.000152415 0.000289826 5.70629e-05 -0.000295071 -9.83118e-05 0.000240098 0.000281144 -1.79575e-05 0.000549631 0.000633674 0.000710376 0.000105224 -0.000537677 -0.000158564 -0.000255107 -0.000250757 -0.000201657 -5.0133e-05 0.000318158 0.000378374 0.000471149 -1.48465e-06 -0.000507174 -0.000629458 8.42723e-05 0.0010251 0.000217834 0.000581819 -0.000741804 -7.09045e-05 -0.000841638 -0.000440791 0.000119096 -0.000307148 9.31012e-05 -9.38513e-05 -7.03622e-05 -0.00102656 -3.54496e-05 -5.24372e-05 0.000147692 -3.44298e-05 2.64806e-05 9.41853e-05 7.539e-05 0.000234082 0.000299496 0.000338137 0.000286764 -0.000294459 -0.000274541 -0.000316561 3.16709e-05 -0.000180455 -1.57568e-05 -8.38393e-05 0.000108004 0.000137203 0.000107083 -5.27511e-05
internal_weight=1.17409e+06 658911 515183 199701 459210 141611 373572 167654 130797 179471 32047 23956 20366 279739 19989 165904 121622 11821 111382 207668 107716 62694 31092 167650 5072 15901 235929 5877 43810 14489 11392 178243 9005 9030 147123 79022 117354 145727 54522 5183 122387 87811 61190 81389 88806 36857 29425 45022 8091 4894 31602 76583 70197 50860 32516 102352 61004 32448 23081 11099 27127 111288
internal_count=1174094 658911 515183 199701 459210 141611 373572 167654 130797 179471 32047 23956 20366 279739 19989 165904 121622 11821 111382 207668 107716 62694 31092 167650 5072 15901 235929 5877 43810 14489 11392 178243 9005 9030 147123 79022 117354 145727 54522 5183 122387 87811 61190 81389 88806 36857 29425 45022 8091 4894 31602 76583 70197 50860 32516 102352 61004 32448 23081 11099 27127 111288
is_linear=0
shrinkage=0.00429154


Tree=7
num_leaves=63
num_cat=0
split_feature=222 7 234 237 226 98 7 259 200 234 136 254 225 230 70 136 230 150 188 70 230 42 244 163 225 70 141 7 110 61 205 190 105 222 95 251 205 163 230 205 261 28 105 63 124 246 246 259 45 128 237 61 237 237 150 244 139 259 254 109 30 254
split_gain=509.695 291.206 284.35 165.677 131.529 109.616 89.8216 56.7839 55.5997 50.9287 43.8966 42.0919 40.0693 34.0675 33.5889 33.3052 33.0885 32.1177 31.7406 30.8794 30.5609 29.9754 32.5148 28.7949 27.0548 26.1214 32.9618 24.175 23.7472 26.2747 23.5885 23.4185 22.3709 22.2084 25.7048 21.3931 21.1253 21.103 20.3778 20.0929 19.31 19.2344 19.221 19.0717 24.3441 19.0333 18.8749 18.8627 19.0696 18.5012 18.3109 18.2089 17.7815 17.6828 20.3216 17.6636 17.6114 17.5035 17.3108 17.3063 17.3819 17.2121
threshold=0.11285418272018434 -1.0847896933555601 -1.4676305055618284 0.28958754241466528 -0.0010969151626341043 0.095988366752862944 1.0783642530441286 -0.15215755254030225 0.0015359396929852667 -1.6885222196578977 0.88236087560653698 0.18581292778253558 -0.25953793525695795 0.005884571000933648 -0.1433877348899841 -0.5892212688922881 0.0099345836788415926 0.50485083460807811 2.0584481954574589 -1.3143820166587827 -0.055724993348121636 -0.12779948860406873 0.67068651318550121 0.25675429403781896 -0.68819069862365712 -0.55756458640098561 -0.65384277701377858 -0.43670758605003351 0.48645156621932989 -0.76156324148178089 -1.1292262673377989 -0.45679257810115809 0.085964161902666106 1.1357597112655642 0.568131983280182 -1.6729298830032346 0.63555043935775768 -0.30116981267929072 0.20365902036428454 0.087967298924922957 -0.299034833908081 0.46925044059753424 -0.84300136566162098 -0.20704371482133863 0.57348185777664196 -0.13696047663688657 -0.6675424575805663 0.31482180953025823 -1.0519781112670896 -0.099514257162809358 0.2011564299464226 -0.2677535861730575 0.14382355660200122 -0.030250671319663521 -1.130864083766937 1.3497159481048586 0.97411224246025097 0.10168856754899026 0.25186567008495336 -1.5276277661323545 -0.14058337360620496 -0.44754219055175776
decision_type=2 2 2 2 2 2 2 2 2 2 2 2 2 2 2 2 2 2 2 2 2 2 2 2 2 2 2 2 2 2 2 2 2 2 2 2 2 2 2 2 2 2 2 2 2 2 2 2 2 2 2 2 2 2 2 2 2 2 2 2 2 2
left_child=2 3 6 7 8 12 24 61 13 35 14 21 42 31 -5 46 37 19 25 45 57 40 -23 36 30 -17 -27 -24 29 -10 -1 47 38 -12 -35 41 49 -7 -21 -31 -6 -8 -3 -42 -45 -14 -9 48 -4 -13 -39 -34 -33 54 -22 -16 58 -11 -18 -48 -61 -2
right_child=1 5 4 10 11 16 9 15 28 20 33 23 17 -15 55 18 56 -19 -20 32 53 22 27 -25 -26 26 -28 -29 -30 39 -32 52 51 34 -36 -37 -38 50 -40 -41 43 -43 -44 44 -46 -47 59 -49 -50 -51 -52 -53 -54 -55 -56 -57 -58 -59 -60 60 -62 -63
leaf_value=-0.00046609424673061902 -0.0001169815027893017 0.00015090257717224548 -7.1647742464315777e-05 5.9461148714625452e-06 -2.6735891594249e-05 -0.00012956789062783843 -0.0012004506639993443 -0.00043797317575015236 -0.00014046243904471795 -0.00047410471841718478 0.00044560808576796273 3.315592207888144e-05 -0.00017811835722404313 -4.6982069419883055e-05 0.00029581280264979424 0.00015076668780672505 -1.3556831076097291e-05 3.8006839893440842e-05 -0.00015749617712538407 0.00017418690231350847 -0.00049698317712554036 -8.0070287511878181e-05 0.0001123280404129889 9.2609764734772083e-05 -2.6463418893774194e-05 0.00037830670537344733 0.00023453240126477057 -3.8516453589154418e-05 -7.7118425689572624e-05 4.596561107142115e-06 -0.00014305013415827545 -9.4449535652503909e-05 3.213752360625522e-06 0.0010543682382249972 0.00078394171742694762 -0.00061057904882874279 5.2668591709473314e-05 -6.5939468948497242e-05 0.00037342148691220953 0.00013671320510408403 9.7534543489048936e-05 -0.00055928505054824069 -5.2914974761345562e-05 -6.9893260733224578e-05 0.00017024429211250831 8.9256857227728648e-05 0.00058353444218204079 -6.1526197246572476e-05 -0.00023942035341329725 -5.7445866803941561e-05 0.00014282038257431754 0.0001553100008868216 1.338952239097879e-05 3.6646119285368117e-05 -0.00016075284668191857 0.00053006612459041767 -8.4633046227012806e-05 -0.00022719363377723292 0.00011764602816306572 -5.5266046340565455e-05 0.00018514900897042053 8.4836875282709158e-05
leaf_weight=6261 4994 5314 6552 2596 36138 33694 1590 1023 5984 11146 5159 35154 5043 107776 10814 10655 19761 44457 2422 29282 2832 68799 11058 56372 16698 16984 21183 15848 16343 11714 15819 101850 11070 2287 1321 7118 57796 22123 8987 17080 25227 829 24516 15848 4865 10705 982 9756 29449 39041 5251 24990 12504 3420 8893 6999 15375 4362 19576 5229 6748 30896
leaf_count=6261 4994 5314 6552 2596 36138 33694 1590 1023 5984 11146 5159 35154 5043 107776 10814 10655 19761 44457 2422 29282 2832 68799 11058 56372 16698 16984 21183 15848 16343 11714 15819 101850 11070 2287 1321 7118 57796 22123 8987 17080 25227 829 24516 15848 4865 10705 982 9756 29449 39041 5251 24990 12504 3420 8893 6999 15375 4362 19576 5229 6748 30896
internal_value=-1.23213e-06 8.89697e-05 -4.96912e-05 0.000212934 -2.8895e-05 3.12898e-05 -0.000230033 0.000152031 -7.6007e-05 -0.000335256 0.000423728 1.21349e-05 8.3992e-05 -9.4314e-05 0.000342185 0.000207848 -4.3473e-05 0.000107333 0.000245357 0.000141807 -0.00027174 -2.28673e-05 -6.10471e-05 4.52045e-05 -0.000120785 0.000262987 0.000301891 3.23139e-05 1.98024e-05 6.67902e-05 -0.000193714 -0.000123705 0.00016886 0.000612529 0.000806386 -0.000538488 1.94997e-05 -9.42663e-05 0.000222477 0.000106676 2.15749e-05 -0.000799976 -2.10624e-05 6.47937e-05 -6.28065e-06 1.36998e-05 6.98867e-05 -0.000184548 -0.000218157 -1.58686e-05 -2.85158e-05 0.00011176 -9.92975e-05 -0.000169475 -0.000228086 0.000391327 1.31086e-05 -0.000371116 4.88054e-05 0.000103065 6.91321e-05 5.03975e-05
internal_weight=1.17456e+06 410436 764122 130292 685154 280144 78968 101116 319008 40190 29176 366146 164364 267887 20409 65226 115780 134534 51244 90077 30653 177783 95705 188363 38778 48822 38167 26906 51121 34778 22080 160111 74329 8767 3608 9537 131991 61068 38269 28794 82078 2419 29830 45940 20713 15748 13982 45757 36001 74195 27374 36060 114354 15145 11725 17813 54712 15508 39337 12959 11977 35890
internal_count=1174558 410436 764122 130292 685154 280144 78968 101116 319008 40190 29176 366146 164364 267887 20409 65226 115780 134534 51244 90077 30653 177783 95705 188363 38778 48822 38167 26906 51121 34778 22080 160111 74329 8767 3608 9537 131991 61068 38269 28794 82078 2419 29830 45940 20713 15748 13982 45757 36001 74195 27374 36060 114354 15145 11725 17813 54712 15508 39337 12959 11977 35890
is_linear=0
shrinkage=0.00317372


Tree=8
num_leaves=63
num_cat=0
split_feature=216 219 234 249 216 216 219 3 219 219 60 124 76 24 239 150 151 221 249 219 99 79 24 70 150 83 41 99 222 99 234 2 3 102 128 28 234 3 175 249 148 252 85 79 127 2 240 60 100 239 102 15 41 2 137 70 94 255 151 37 111 73
split_gain=996.32 317.459 263.527 105.757 91.5321 83.8777 54.89 54.5196 51.1985 47.5018 44.0131 39.1522 34.0939 33.4745 32.2844 31.4923 27.4095 26.8316 27.1149 26.1313 26.01 25.7174 24.3715 22.9211 21.8587 21.7136 21.7118 27.5652 23.5008 21.4545 21.3643 21.2825 24.6269 21.1925 20.9358 20.8914 20.9917 20.2155 19.1163 21.1803 18.5161 18.2299 18.0984 18.095 17.5897 17.3871 19.4941 21.0126 17.1335 18.1181 17.8606 17.1335 17.6673 17.1207 17.1152 17.0387 16.9376 16.6812 16.4733 16.3873 16.2054 16.4071
threshold=0.009380723815411331 0.52195411920547496 -1.4676305055618284 1.0000000180025095e-35 0.73358371853828441 0.67279544472694408 0.07819614559412004 0.31062135100364691 1.9403977394104006 -2.2503434419631954 -0.53873154520988453 -0.8191213309764861 -0.70184484124183644 0.72219556570053112 0.061378501355648048 1.0000000180025095e-35 -0.80965837836265553 -0.010412040632218121 -0.25094236433506006 0.14824372529983523 0.49507775902748113 -0.68454906344413746 0.13445964455604556 -1.1301048398017881 -0.4412392377853393 -1.0945325493812559 0.10557346791028978 -0.44310294091701502 -0.090506412088870988 0.8850303888320924 -0.9270954132080077 0.085952177643775954 -0.97097197175025929 0.0082255578599870222 -1.242873966693878 0.37990230321884161 1.5092101097106936 -0.014971862081438301 -1.4062958955764768 0.071422025561332717 0.35605807602405554 0.92420288920402538 1.4164285063743594 1.0000000180025095e-35 -0.36031427979469294 0.3042591661214829 0.18153748661279681 1.2047520279884341 -0.36217790842056269 0.059458369389176376 0.29748895764350897 0.89806112647056591 1.9909606575965884 0.43995039165019995 0.38547362387180334 -0.35098645091056818 0.51276844739913952 -0.31249709427356714 1.1564013361930849 0.78713154792785656 -0.21701048314571378 -0.43057574331760401
decision_type=2 2 2 2 2 2 2 2 2 2 2 2 2 2 2 2 2 2 2 2 2 2 2 2 2 2 2 2 2 2 2 2 2 2 2 2 2 2 2 2 2 2 2 2 2 2 2 2 2 2 2 2 2 2 2 2 2 2 2 2 2 2
left_child=2 5 9 7 21 6 11 30 23 13 12 -2 -10 -1 17 26 25 24 -19 33 34 58 -14 -6 -9 59 27 -11 -29 53 -4 32 -32 -7 -13 36 -25 40 -17 41 54 -40 51 -24 -36 46 56 -48 -39 50 -50 52 -12 -18 -5 -15 -35 -23 -3 -8 -22 -62
right_child=1 4 3 37 8 19 16 14 10 15 42 20 22 55 -16 38 29 18 -20 -21 60 57 43 35 -26 -27 -28 28 -30 -31 31 -33 -34 45 44 -37 -38 48 39 -41 -42 -43 -44 -45 -46 -47 47 -49 49 -51 -52 -53 -54 -55 -56 -57 -58 -59 -60 -61 61 -63
leaf_value=-0.00035020900648777205 -6.3416343323349097e-05 0.00024666950561371299 -0.00010729010322592982 0.00010375554436753022 9.6063462998423162e-05 0.00011440482023067049 -0.00012128532508505263 -0.00021130873037428978 0.00010559239715451902 -0.00019234383798330518 0.00049355209792369343 0.00016466492970363368 0.00052807185458909845 -0.00033355804632253258 -4.8275840101604081e-05 0.0001082202554501558 8.0333048424073404e-05 -0.00018985270183219236 -6.6244285780568831e-05 0.00014937845401072027 -0.00022215664326721504 3.1793546237390286e-05 0.00098441933986142833 0.00023898724088243631 -0.00011665191760906407 0.00014550815834311065 -0.00021145167149731812 -0.00044274726778922857 -6.2021929746221982e-05 -3.6878824194113676e-05 0.00021134960900329874 -4.7036457313010785e-05 -2.180541883694302e-06 5.5343947786770997e-05 -1.2447852263226841e-05 0.00019737176435983582 0.0004355572424502284 2.971986468597809e-05 -0.00020637089278137283 0.00015732596498460824 -8.8378018504231066e-06 0.00013838991114076653 0.0007895773165627314 0.0005663144698751575 4.4007713452057551e-05 -7.763979278212656e-05 0.00019408045122386384 -0.00019479994744732009 -2.959991884515928e-05 1.6946711885798133e-05 -0.00013151925122420612 -3.614104647829296e-05 -8.4390561295551931e-05 -2.4188943863699819e-07 -6.6015179171471041e-06 -0.00076053323389671111 -7.84960312050327e-05 0.0001368277231269466 -3.4892408360974509e-05 0.00016139942056394882 -9.1065331805740012e-05 1.130444658989249e-05
leaf_weight=4601 38714 15756 18405 22713 5609 43906 2193 22290 695 6244 4666 10259 1121 1167 61172 2725 56888 14473 93998 38314 3319 13943 2316 12123 60560 20584 13520 11821 1463 13562 3996 70683 53041 22039 41255 12705 9143 30510 15435 954 24077 1595 671 1352 76467 6964 7721 1028 23271 21730 16136 1327 814 18460 10087 4182 6430 25962 1685 670 12671 31807
leaf_count=4601 38714 15756 18405 22713 5609 43906 2193 22290 695 6244 4666 10259 1121 1167 61172 2725 56888 14473 93998 38314 3319 13943 2316 12123 60560 20584 13520 11821 1463 13562 3996 70683 53041 22039 41255 12705 9143 30510 15435 954 24077 1595 671 1352 76467 6964 7721 1028 23271 21730 16136 1327 814 18460 10087 4182 6430 25962 1685 670 12671 31807
internal_value=-4.19026e-07 7.89678e-05 -7.3614e-05 -5.50548e-05 0.000205156 4.83608e-05 2.62024e-05 -7.72614e-05 0.00028414 -0.000232909 0.0004274 1.63468e-06 0.000606377 -0.000399531 -0.000100553 -0.000201937 7.30539e-05 -0.000117303 -9.0096e-05 0.000105613 1.825e-05 0.000132679 0.000685006 0.000237044 -0.000152853 0.000152747 -0.000252222 -0.000308379 -0.000376088 5.19714e-05 -3.69768e-05 -2.49119e-05 1.2615e-05 8.06746e-05 3.77209e-05 0.000262699 0.000313198 4.51001e-06 -0.000121397 -0.000152441 4.32876e-05 -0.000173881 0.000295131 0.000789346 2.77832e-05 4.00314e-05 6.25644e-05 0.000170678 -1.94997e-05 -4.4808e-05 -7.82769e-05 0.000253139 0.000317721 6.92426e-05 8.37525e-05 -0.000541026 2.91313e-05 9.57893e-05 0.000216731 -5.93038e-05 -3.37744e-05 -2.04707e-05
internal_weight=1.17399e+06 563139 610849 547142 109888 453251 326849 398618 52542 63707 12962 214492 5484 9950 252493 53757 112357 191321 108471 126402 175778 57346 4789 39580 82850 23447 33048 19528 13284 88910 146125 127720 57037 88088 127981 33971 21266 148524 20709 17984 56877 17030 7478 3668 117722 44182 37218 8749 91647 61137 39407 6807 5480 75348 32800 5349 28469 39905 17441 2863 47797 44478
internal_count=1173988 563139 610849 547142 109888 453251 326849 398618 52542 63707 12962 214492 5484 9950 252493 53757 112357 191321 108471 126402 175778 57346 4789 39580 82850 23447 33048 19528 13284 88910 146125 127720 57037 88088 127981 33971 21266 148524 20709 17984 56877 17030 7478 3668 117722 44182 37218 8749 91647 61137 39407 6807 5480 75348 32800 5349 28469 39905 17441 2863 47797 44478
is_linear=0
shrinkage=0.00261667


Tree=9
num_leaves=63
num_cat=0
split_feature=0 219 222 0 249 202 219 147 249 251 227 48 141 229 202 145 50 219 0 48 251 256 41 41 246 252 205 241 62 219 228 128 248 256 252 48 259 252 189 239 228 227 29 0 130 193 4 228 75 44 105 113 69 66 105 256 74 50 97 105 167 136
split_gain=1172.86 378.823 175.208 140.877 104.79 99.2097 90.0658 61.581 53.8107 50.8204 47.011 46.403 39.5459 37.7254 34.7194 32.0772 28.6351 28.0678 27.4147 27.3666 26.253 25.9322 25.7213 24.6785 23.2424 21.4804 22.2566 21.202 20.9171 21.5077 22.4511 20.7974 20.6682 20.2252 20.0507 19.6217 19.5366 19.5159 19.4975 19.4775 24.2977 19.1869 19.0794 19.0794 18.9675 18.7885 18.07 17.0274 16.8694 16.5516 18.043 16.5279 16.6517 16.5018 16.8617 16.3653 16.1117 17.1931 15.8174 15.7358 16.473 15.7012
threshold=0.31044672429561621 0.38829421997070318 -0.46610514819622034 -0.27502517402172083 0.020207326859235767 -0.15319734066724774 1.9403977394104006 -1.3199271559715269 -1.0000000180025095e-35 -1.3740763664245603 -0.021305207163095471 0.40966403484344488 1.2171087861061098 0.0011258445447310807 -0.5435613989830016 0.64835473895072948 0.090147178620100035 -0.22747364640235898 -0.48804639279842371 -0.49201531708240503 1.5520896315574648 0.022389043122529987 -1.6355054378509519 2.1706675291061406 -0.60975605249404896 0.87917476892471325 -2.2105365991592403 -0.27399194240570063 0.74361366033554088 0.28748528659343725 -0.91291305422782887 -0.71086135506629933 0.064401511102914824 0.044652868062257774 0.091182142496109023 0.027231501415371898 0.31482180953025823 -0.85741087794303883 -0.79031139612197865 0.29461964964866644 0.59176230430603038 11.037646293640138 -0.19840265065431592 -1.0276767015457151 -0.2692472487688064 0.087938845157623305 -1.2539246678352354 -0.6317479908466338 0.057614801451563842 1.3515816330909731 1.2328745126724245 -0.23625004291534421 -1.198404014110565 -0.24371752887964246 0.83853623270988475 -0.0028768454212695356 -2.5057777166366573 2.0441527366638188 0.22206371277570727 -0.42689439654350275 -1.8289064764976499 0.92562332749366771
decision_type=2 2 2 2 2 2 2 2 2 2 2 2 2 2 2 2 2 2 2 2 2 2 2 2 2 2 2 2 2 2 2 2 2 2 2 2 2 2 2 2 2 2 2 2 2 2 2 2 2 2 2 2 2 2 2 2 2 2 2 2 2 2
left_child=1 4 9 5 7 35 15 22 13 25 38 23 14 28 43 20 24 31 27 51 41 42 -1 36 37 26 -2 -16 29 30 -4 -15 -24 -20 48 -3 -8 -9 -6 40 59 -7 -5 -12 -31 -37 -47 -18 -26 50 -17 -11 -53 54 -30 -40 -23 -58 -22 60 -10 -13
right_child=2 3 8 21 10 6 11 16 39 19 12 61 -14 17 18 49 47 -19 33 -21 58 56 32 -25 34 -27 -28 -29 53 44 -32 -33 -34 -35 -36 45 -38 -39 55 -41 -42 -43 -44 -45 -46 46 -48 -49 -50 -51 -52 52 -54 -55 -56 -57 57 -59 -60 -61 -62 -63
leaf_value=-0.00030185628980164972 -0.00095640850512887098 0.00024768948457332211 0.00025078849909705188 -0.00016244867500864863 9.6683598621474014e-05 0.00024703977822416469 0.00067891496857723586 -0.00043971369556836684 -0.00051401901463479674 -0.00011778343178519066 0.00016702989706426271 0.00040881471739074503 -1.1324213194938927e-05 3.4597907015771302e-05 0.00011444310435024841 0.00029418416722680924 0.00026848103741627537 -6.1173096739542462e-05 4.8730049290176618e-05 -0.00025518386374541609 0.00061289965530880589 -0.00040403422665143498 6.3248396082103098e-05 0.00031344035195765671 -9.1378621470783206e-05 -0.00022108284429368121 -0.00049482653088854989 0.00020852831281780246 0.00020834275984062619 -0.00019575425349934133 -0.00019978775352779617 -0.00022207502577666714 0.0001842313475453081 0.00012820580190974856 8.9142208316733565e-06 0.00019778717010791392 0.0010545753100955047 -9.8856609771672449e-05 -3.1188011871084302e-05 0.00019971987347713316 -0.00033014909703455548 0.00049226779211155203 3.7615991725442563e-05 -6.4420195164309233e-06 -6.0738153310127533e-05 0.00020255098665980097 -0.00014136836863416516 6.3728154606517952e-06 2.2598111946297157e-06 -0.0002292530739352259 -6.2869221506975682e-05 -0.0007361277059794954 -0.00031159441444282066 -0.0001373145902609907 -0.00031505824980944343 4.4260199281390407e-05 0.00011123429681348797 0.00041416731759138175 0.0002853870741643054 -6.5164160238991172e-05 5.4148707294493127e-05 0.0010893021882484818
leaf_weight=1176 2149 12595 1492 6113 11765 29921 4824 1617 680 2649 10314 4001 28389 4310 24818 18867 3761 91588 43380 33794 4329 631 24790 688 43619 2607 14403 45434 3366 11924 77760 24691 9894 40886 52727 17273 2171 26373 48850 4481 4086 4851 16089 29157 21402 6257 6334 96875 21223 904 2509 1793 8267 18658 948 47309 22108 1393 2577 44285 20902 1605
leaf_count=1176 2149 12595 1492 6113 11765 29921 4824 1617 680 2649 10314 4001 28389 4310 24818 18867 3761 91588 43380 33794 4329 631 24790 688 43619 2607 14403 45434 3366 11924 77760 24691 9894 40886 52727 17273 2171 26373 48850 4481 4086 4851 16089 29157 21402 6257 6334 96875 21223 904 2509 1793 8267 18658 948 47309 22108 1393 2577 44285 20902 1605
internal_value=2.2599e-06 7.5607e-05 -0.000141812 0.000213435 3.82231e-05 0.000272402 0.000341898 -7.80819e-06 -0.000111289 -0.000295357 7.75498e-05 0.000586075 0.000104594 -0.000133672 0.000121192 0.00029102 -2.61758e-05 -9.16914e-05 0.000143201 -0.000236914 0.00034449 6.09363e-05 0.000118098 0.000751083 -5.53573e-05 -0.000436774 -0.000480201 0.00019077 -0.000170967 -0.000189266 -0.000218526 -0.000180007 0.000134293 0.000103457 -3.52225e-05 0.000145788 0.000809103 -0.000139678 2.17622e-05 -3.41751e-05 -4.75709e-05 0.000307569 -1.90439e-05 3.48586e-05 -0.000119464 9.99828e-05 3.87402e-06 1.59682e-05 -7.3544e-05 0.000190649 0.000209056 -0.000366151 -0.000426642 -8.09852e-05 9.94246e-05 6.3937e-06 0.000134778 0.000148776 0.000529089 -3.23477e-05 3.94832e-05 0.000358304
internal_weight=1.17463e+06 778397 396235 166040 612357 119706 77247 282055 330573 65662 330302 13289 222378 256139 193989 63958 246195 120589 154518 46503 41678 46334 35860 7683 145559 19159 16552 70252 135550 112578 79252 29001 34684 84266 117569 42459 6995 27990 107924 74434 69953 34772 22202 39471 33326 29864 12591 100636 64842 22280 21376 12709 10060 22972 4314 96159 24132 23501 6906 65867 21582 5606
internal_count=1174632 778397 396235 166040 612357 119706 77247 282055 330573 65662 330302 13289 222378 256139 193989 63958 246195 120589 154518 46503 41678 46334 35860 7683 145559 19159 16552 70252 135550 112578 79252 29001 34684 84266 117569 42459 6995 27990 107924 74434 69953 34772 22202 39471 33326 29864 12591 100636 64842 22280 21376 12709 10060 22972 4314 96159 24132 23501 6906 65867 21582 5606
is_linear=0
shrinkage=0.00325314


Tree=10
num_leaves=63
num_cat=0
split_feature=0 217 217 234 3 214 7 217 0 217 202 243 226 48 52 0 147 0 97 217 84 147 239 156 136 91 7 53 48 48 191 0 256 239 230 131 49 257 23 240 208 239 72 239 230 202 156 48 107 189 73 221 214 230 72 23 97 30 228 103 52 230
split_gain=1278.57 416.116 282.756 99.6758 87.2975 86.082 71.2442 62.9337 58.1814 55.1136 51.0795 41.5415 36.4366 36.1332 33.5867 33.067 39.8824 31.5812 31.1887 30.8902 29.0563 28.7683 28.3652 25.2284 24.4069 24.206 23.9899 23.8607 22.648 22.4917 23.3341 22.2991 21.8955 23.134 21.8822 21.8126 21.4737 20.6012 24.8584 19.8311 19.7567 22.3403 19.5653 23.0635 19.0278 18.9566 18.9351 18.8696 18.1612 17.9343 17.5191 17.3962 17.36 17.2358 17.1009 16.8668 16.6809 16.9807 16.6164 16.5299 16.7978 16.5252
threshold=0.10704457387328149 0.11513569578528406 -0.082916583865880952 1.5858730077743532 -0.022307176142930981 -0.51077279448509205 1.0783642530441286 0.32224820554256445 1.1668817400932314 0.017887532711029056 -0.21928376704454419 0.0438927710056305 -0.0096154073253273947 1.1396694779396059 0.6544458568096162 -0.88289731740951527 -1.1930965781211851 -0.32560798525810236 0.58170568943023693 -0.31761284172534937 -0.51506021618843068 -1.5728918910026548 -0.24331214278936383 -0.62245565652847279 1.7912546992301943 0.23818315565586093 0.029948781244456772 0.11920696124434473 -0.73467600345611561 0.36828474700450903 0.25310900807380682 -0.31698273122310633 -0.15171980112791059 0.26294627785682684 0.020144633017480377 -0.45643889904022211 -1.2204983234405515 -0.3943564891815185 0.71518930792808544 -0.17452006787061689 0.49520833790302282 0.20126892626285556 0.76506209373474132 0.089917864650487914 0.02216791640967131 0.99705657362937938 -0.20002849400043485 -0.96499580144882191 0.68579375743865978 -0.6972038447856902 1.1316131353378298 0.26973268389701849 0.3566544800996781 1.0000000180025095e-35 -0.69492918252944935 -0.29730010032653803 0.38309478759765631 -1.5010804533958433 0.45778879523277288 0.72962969541549694 -1.1284634470939634 0.27275066077709204
decision_type=2 2 2 2 2 2 2 2 2 2 2 2 2 2 2 2 2 2 2 2 2 2 2 2 2 2 2 2 2 2 2 2 2 2 2 2 2 2 2 2 2 2 2 2 2 2 2 2 2 2 2 2 2 2 2 2 2 2 2 2 2 2
left_child=1 4 6 10 9 12 -2 13 24 21 53 39 -4 14 -5 -6 35 25 31 -10 27 36 48 59 -8 46 45 -18 -21 30 -23 40 -28 58 -22 -17 -1 38 -31 -7 41 -11 43 51 -45 -13 61 -48 -14 -20 -50 -41 -32 -3 -9 -19 57 -37 -34 -24 -61 -12
right_child=2 3 5 7 15 11 8 54 19 18 17 26 22 -15 -16 16 20 55 49 28 34 29 23 -25 -26 -27 32 -29 -30 37 52 -33 33 -35 -36 56 -38 -39 -40 42 -42 -43 -44 44 -46 -47 47 -49 50 -51 -52 -53 -54 -55 -56 -57 -58 -59 -60 60 -62 -63
leaf_value=-0.00015244677852830127 -0.00022284456564434542 -7.4638851825406191e-05 -0.00025622289867665378 0.00040444567361533871 0.00013725262536025976 -0.00021820610108388795 -0.00025558924159750765 0.00079931748916096913 -0.001262155625172333 0.00019338249369604962 0.00017123437582833802 3.8953929791376593e-05 -0.0002755164302259225 0.00037536592547974818 0.00075421912636612859 -4.7512205650591928e-05 -3.0519574926498882e-05 -2.4253149413341457e-05 0.00023539333711791589 -0.00068646188022070565 -0.00010404126403546924 3.749521771867478e-05 3.1921132083101084e-05 -0.00012231057371603089 -0.00063527499005864262 0.00027924216199406781 -0.00020255830513626712 0.00012741355287050642 -0.00058727056867388823 -2.7067209910720722e-06 5.7100836633707231e-05 8.7779472237015701e-05 2.0782729387792631e-06 0.00035077995865460905 -9.0061134445242449e-06 -0.00016695926056728075 0.00021835554690515034 6.6521116722097654e-05 -0.00028315806209999137 -8.8797236740345952e-05 0.00014034682324552133 0.00035432329000613106 -0.00015623614840255988 -5.4625918425451616e-05 0.00011628934420975687 0.00023245934570022451 0.00055208283401720617 0.00038869776735588155 -8.053841045811046e-05 2.9583771754752652e-05 -0.00045670624299989438 0.00014783640641086981 0.00016659231746568912 0.00018859247331641971 0.0011446283852911397 0.00022392992893806323 -1.3017000147648111e-05 0.00020291892215860293 -0.00029731094381132045 -0.00034176101425612953 -5.4919649348126288e-05 0.00045507666896121808
leaf_weight=1371 33380 6558 50394 9360 23961 10722 23202 1310 2470 44483 7028 34969 15901 5992 7923 7336 21787 4767 4066 5942 56048 79975 23072 110614 2611 10919 10611 17626 14723 24860 21244 40456 27149 2053 42092 1246 11500 52410 8530 60889 20139 11556 22750 14885 14349 6954 6697 9833 11187 29247 1350 4317 28808 7109 4010 5586 5471 16114 2162 1638 7272 1794
leaf_count=1371 33380 6558 50394 9360 23961 10722 23202 1310 2470 44483 7028 34969 15901 5992 7923 7336 21787 4767 4066 5942 56048 79975 23072 110614 2611 10919 10611 17626 14723 24860 21244 40456 27149 2053 42092 1246 11500 52410 8530 60889 20139 11556 22750 14885 14349 6954 6697 9833 11187 29247 1350 4317 28808 7109 4010 5586 5471 16114 2162 1638 7272 1794
internal_value=-3.13388e-08 0.000107374 -0.000137376 0.000341693 7.08398e-05 -9.97645e-05 -0.000335193 0.000520963 -0.000424771 0.000103249 0.00025651 -4.66515e-05 -0.000150535 0.000437588 0.000523239 6.77991e-06 -1.14581e-05 0.000314559 0.00015814 -0.000559244 -3.80854e-05 6.72246e-05 -0.000124802 -0.000103529 -0.000303879 0.000365869 1.69375e-05 4.62328e-05 -0.000511723 5.70925e-05 8.76294e-05 0.000186545 -4.51652e-05 3.52095e-06 -7.20232e-05 0.000109697 0.000236463 1.07267e-05 -6.06346e-05 -8.84163e-05 0.00022375 0.000259416 -7.44524e-05 -5.0988e-05 3.47525e-05 7.92908e-05 0.000428606 0.000502758 -0.000231177 5.84543e-05 -0.000125343 -8.9541e-05 0.000150039 5.78956e-05 0.00088359 0.000134 0.000165896 0.000221767 -2.27307e-05 -1.22003e-05 -0.000147017 0.000288624
internal_weight=1.17478e+06 659212 515566 88886 570326 433238 82328 28595 48948 378645 60291 211810 221428 23275 17283 191681 167720 46624 149947 23135 137553 228698 171034 142596 25813 36271 83898 39413 20665 215827 130027 116634 41975 31364 98140 30167 12871 85800 33390 127912 76178 56039 117190 94440 29234 41923 25352 16530 28438 33313 12537 65206 50052 13667 5320 10353 22831 17360 29311 31982 8910 8822
internal_count=1174778 659212 515566 88886 570326 433238 82328 28595 48948 378645 60291 211810 221428 23275 17283 191681 167720 46624 149947 23135 137553 228698 171034 142596 25813 36271 83898 39413 20665 215827 130027 116634 41975 31364 98140 30167 12871 85800 33390 127912 76178 56039 117190 94440 29234 41923 25352 16530 28438 33313 12537 65206 50052 13667 5320 10353 22831 17360 29311 31982 8910 8822
is_linear=0
shrinkage=0.00368162


Tree=11
num_leaves=63
num_cat=0
split_feature=216 217 217 1 217 217 256 1 217 222 250 216 216 244 46 129 99 167 217 217 193 222 48 205 130 150 250 91 27 129 247 97 94 254 246 245 130 150 216 250 1 223 92 190 250 193 48 205 27 143 107 130 29 43 170 137 233 27 99 161 34 221
split_gain=927.084 407.418 231.355 130.13 87.5661 70.7281 62.0049 60.231 43.7297 41.3988 37.4891 34.9952 34.595 29.7073 29.4274 27.5795 28.1042 25.9994 24.6408 24.5899 23.7661 25.7827 23.591 24.896 23.3774 22.8636 22.6832 22.6007 21.8319 20.9958 23.3083 22.8239 19.913 19.9031 19.8477 19.7791 19.6258 22.6305 19.6254 19.3496 18.9562 18.9498 18.8651 18.81 18.7726 18.1321 17.8886 17.6057 17.5004 17.2072 17.1149 16.8305 16.8086 17.3746 16.3434 15.8835 15.6494 15.3617 15.3075 24.2192 16.9302 15.2221
threshold=0.20375251024961474 0.13082438707351687 -0.12526810169219968 0.42388501763343817 0.022000425495207313 0.32224820554256445 -0.0028768454212695356 -0.036561395972967141 -0.21839594841003415 -0.21066357940435407 -0.54289710521697987 0.78761750459671032 0.81013157963752758 -0.0094876042567193491 1.0740066170692446 -0.27608722448348993 0.50517719984054577 -0.83269041776657093 0.0061287260614335546 -0.00694708852097392 0.64831793308258068 0.81699952483177196 1.1120225191116335 -1.4968671202659605 0.75340533256530773 0.19227862358093264 -1.139157712459564 0.90611141920089733 0.73306360840797435 -0.73033398389816273 -0.11090194433927535 0.049471955746412284 -0.030752546153962609 -0.097406703978776918 -0.29005618393421168 -0.0075218256097286931 -0.57891631126403797 0.7751339077949525 -1.0000000180025095e-35 -0.17544975131750104 -0.25053985416889185 -0.2474199756979942 -0.2044551149010658 -0.61126011610031117 -0.089091122150421129 1.388749957084656 1.2073696851730349 -1.8745422363281248 0.28410929441452032 -2.0339510440826412 -0.44849528372287745 0.96830084919929515 0.76751574873924266 0.025267876684665683 0.12723940610885623 0.50738272070884716 -0.28255149722099299 0.22502564638853076 0.21492251008749011 0.62012553215026867 1.4976233243942263 0.28493419289588934
decision_type=2 2 2 2 2 2 2 2 2 2 2 2 2 2 2 2 2 2 2 2 2 2 2 2 2 2 2 2 2 2 2 2 2 2 2 2 2 2 2 2 2 2 2 2 2 2 2 2 2 2 2 2 2 2 2 2 2 2 2 2 2 2
left_child=2 4 7 6 12 11 10 38 13 17 58 39 15 14 28 57 36 -8 40 33 22 -22 23 -13 44 32 -11 61 41 30 -28 -31 46 34 -5 -27 37 -17 -1 -3 55 -9 -41 -34 56 54 -6 51 -26 -38 -42 -10 53 -45 -44 -12 -21 -2 59 -4 -60 -7
right_child=1 5 3 19 25 27 9 8 47 26 18 20 -14 -15 -16 16 -18 -19 -20 24 21 -23 -24 -25 48 35 29 -29 -30 31 -32 -33 43 -35 -36 -37 49 -39 -40 42 50 -43 45 52 -46 -47 -48 -49 -50 -51 -52 -53 -54 -55 -56 -57 -58 -59 60 -61 -62 -63
leaf_value=-0.00021121115808513826 -8.0691422536217133e-05 -6.3693605005940354e-05 -4.1918537005372137e-05 -0.00027620742152908306 0.00014420456592865487 0.00045377279850637698 -0.00046643623728861354 -0.0012312800112727475 -0.00072178391059476987 -0.00024825540772735108 9.7436591696829076e-06 0.00098482566056327784 0.00012913918531411929 -0.00019294733214779978 -0.0003954279352084278 4.2878650288122475e-05 -3.3193613072555862e-05 -7.3652065108671688e-05 6.2654820434943451e-06 -0.000188385104279342 -0.00029089267361285094 0.0006019046183938008 0.00042530383153423766 0.00049956249950328915 -0.00010160178204703036 5.5417302720750255e-06 -0.00016652012208245989 0.00067600083578295798 -0.00049927433723636456 8.6219818728033648e-05 3.0356365619970926e-05 9.1955695940262531e-06 0.00011592432262854509 -0.00012084852613532447 -0.00014563138229179082 0.00013603435066359128 -0.00022195724615552565 -0.00030351420716653247 6.7187688929319712e-05 0.00021350141255193931 -0.00023291121132705517 -0.00064077818837986525 0.00028934154010005819 2.7883224170836825e-05 -8.3554292608952591e-06 -0.00015400345218389755 -7.5903030169403036e-05 -0.00028834168383464414 0.00012740505157179843 0.00010468596943429393 -8.2308358812402084e-05 -8.890124657451941e-06 0.00015016787492975762 0.00030400477036909683 0.0004990926500663416 -0.00015696974300703835 -0.00010040292602212826 2.3733617712243035e-05 -0.00017521312479222217 -0.00024041296221478142 -0.00053246054570340662 0.0010911318723791075
leaf_weight=6350 43196 2171 27121 36580 38137 748 3499 3192 3744 2986 31802 2139 40026 2115 2569 12441 36739 20544 76554 42589 1461 2547 4427 16438 16181 23003 10188 1259 2442 75266 21447 64838 12761 33487 23402 44350 1415 3994 5311 10605 7215 3677 8773 2297 16245 948 6925 26814 10486 62235 32207 745 13005 23811 6373 10810 67744 26387 24077 7825 1735 4120
leaf_count=6350 43196 2171 27121 36580 38137 748 3499 3192 3744 2986 31802 2139 40026 2115 2569 12441 36739 20544 76554 42589 1461 2547 4427 16438 16181 23003 10188 1259 2442 75266 21447 64838 12761 33487 23402 44350 1415 3994 5311 10605 7215 3677 8773 2297 16245 948 6925 26814 10486 62235 32207 745 13005 23811 6373 10810 67744 26387 24077 7825 1735 4120
internal_value=-4.53945e-06 0.000128837 -8.82085e-05 -6.84889e-05 8.3875e-05 0.000411991 -2.80571e-05 -0.000318218 -0.000380292 2.00132e-05 -7.16515e-05 0.000369629 3.58834e-05 -0.000555675 -0.000628935 1.43008e-05 4.96275e-05 -0.000126178 -4.1158e-05 -0.000136977 0.000467339 0.000196761 0.000514102 0.000573248 -0.000107537 0.000149971 4.01759e-05 0.000796518 -0.000727704 4.5866e-05 -4.14741e-05 6.56416e-05 0.000187029 -0.000185156 -0.000226276 9.65149e-05 8.91528e-05 -2.63017e-05 -7.63862e-05 0.000277882 -8.6439e-05 -0.000837441 0.000305684 0.000237433 -0.000128855 0.000387235 0.000128818 -0.000301564 -6.0618e-06 0.000119082 -0.00014591 -0.000521247 0.000278458 0.000333768 0.000418909 -3.12327e-05 -0.00014643 -4.49009e-05 -0.000151111 -9.94033e-05 -0.000220791 0.000913574
internal_weight=1.17452e+06 452731 721787 664828 390722 62009 418114 56959 45298 198768 219346 55882 226433 13995 11880 186407 116824 24043 158588 246714 27012 4008 23004 18577 153245 164289 174725 6127 9311 171739 31635 140104 96936 93469 59982 67353 80085 16435 11661 28870 82034 6869 26699 51874 126578 16094 45062 31303 26667 63650 39422 4489 39113 26108 15146 42612 110333 69583 60758 34946 25812 4868
internal_count=1174518 452731 721787 664828 390722 62009 418114 56959 45298 198768 219346 55882 226433 13995 11880 186407 116824 24043 158588 246714 27012 4008 23004 18577 153245 164289 174725 6127 9311 171739 31635 140104 96936 93469 59982 67353 80085 16435 11661 28870 82034 6869 26699 51874 126578 16094 45062 31303 26667 63650 39422 4489 39113 26108 15146 42612 110333 69583 60758 34946 25812 4868
is_linear=0
shrinkage=0.00376001


Tree=12
num_leaves=63
num_cat=0
split_feature=235 217 234 216 216 217 217 216 256 239 98 150 139 139 217 98 175 239 139 259 251 95 53 175 200 200 139 196 229 168 190 54 249 1 227 247 13 239 200 31 227 256 67 87 259 161 239 50 216 259 255 141 85 155 46 228 93 154 28 1 61 1
split_gain=952.386 358.297 284.193 114.738 111.172 93.1274 70.3275 68.3222 58.8639 39.6188 39.1456 36.0639 34.8522 33.2112 32.6922 32.3425 30.7811 29.2104 28.3275 26.6564 26.5857 25.6429 24.9802 24.8569 23.7995 23.5729 22.8395 22.6622 22.5359 22.4244 22.0866 21.5566 21.5209 21.936 21.2769 21.247 21.0576 20.9272 20.4883 20.032 19.4257 19.2361 19.0628 18.8476 18.5402 18.3358 22.633 25.7488 18.1489 17.8369 17.7539 17.66 17.6594 17.6336 19.9826 17.2 17.1476 18.3145 16.996 16.8439 19.3429 16.7949
threshold=0.12270184606313707 0.10002570226788522 -1.4676305055618284 0.19549707323312762 0.009380723815411331 0.24940656125545504 -0.21839594841003415 0.62476542592048656 -0.08342720195651053 -0.10927030444145201 0.27908480167388922 0.40080821514129644 0.59228578209877025 0.13650342822074893 0.022000425495207313 -0.27837166190147394 1.4115117192268374 -0.048486920073628419 1.5815625190734866 -0.027204436250030991 -1.6872233748435972 -0.084359660744667039 -2.0664416551589961 1.3717636466026308 0.0012951575918123128 -0.012528687249869106 1.2441447377204897 0.47599783539772039 0.36510309576988226 0.021273192018270496 -1.1595947146415708 0.96071067452430736 -0.46910731494426722 0.25822356343269354 -0.72883272171020497 0.47394917905330664 0.88163834810256969 -0.32824142277240748 -0.0032100607641041275 0.8601612150669099 -0.33942471444606775 -0.10944346711039542 -0.27713035047054285 -0.92306581139564503 0.23114449530839923 0.057681996375322349 0.077269937843084349 0.74709883332252514 -0.5362100601196288 0.29061910510063177 0.15657351166009906 0.41240024566650396 0.10349147021770479 -0.36893475055694575 1.3847290873527529 -0.5497906208038329 0.48844482004642492 0.92034718394279491 0.48210339248180395 0.23355218768119815 0.75632736086845409 -0.00742219085805118
decision_type=2 2 2 2 2 2 2 2 2 2 2 2 2 2 2 2 2 2 2 2 2 2 2 2 2 2 2 2 2 2 2 2 2 2 2 2 2 2 2 2 2 2 2 2 2 2 2 2 2 2 2 2 2 2 2 2 2 2 2 2 2 2
left_child=2 7 6 11 8 18 16 9 17 -2 25 31 27 56 42 -14 20 34 19 -5 58 40 -12 35 28 29 36 53 50 -10 -27 -3 48 -34 -4 -21 39 -32 -36 -16 -9 43 61 -26 51 -19 -47 -48 -24 -44 -6 -22 -20 -8 -55 -30 57 -7 -1 -43 -61 -11
right_child=1 3 4 5 24 13 12 21 10 14 22 -13 15 -15 26 -17 -18 45 52 23 44 -23 32 -25 41 30 -28 -29 55 -31 37 -33 33 -35 38 -37 -38 -39 -40 -41 -42 59 49 -45 -46 46 47 -49 -50 -51 -52 -53 -54 54 -56 -57 -58 -59 -60 60 -62 -63
leaf_value=-0.00075687357709967114 -2.3882952897197152e-05 0.00015480388986655394 -0.00015466749449173826 0.00012629942728567089 -4.1583651817832664e-05 0.00037898765371673288 -0.00032684294552442171 3.374300026938579e-05 -0.00036162660262564175 4.4770389808219828e-05 -0.00025108714481269503 -6.6097048301447912e-05 0.00014848947804408253 0.00025900358730520702 7.1163393293563186e-05 -0.00015474362036346922 -7.4153888340830197e-05 -2.9609336790699344e-05 -0.00031783544603607481 0.00024362735201297747 -0.00044107021997064668 5.6551765829068754e-05 -1.305990108363287e-05 0.00012150921678282318 -0.00037594866789764737 -0.00012647758554541882 -3.7575987382161478e-05 -0.00010334985270279177 0.00019904904087711154 -5.7225374317327204e-05 -9.8098407794610507e-05 -6.0486711805025515e-05 -8.7060296462704131e-06 -6.8961328387322427e-05 -1.6660166616518766e-06 -2.5344741380532554e-05 1.4801550377170562e-05 6.7349477676217593e-06 -9.3691304281717262e-05 0.00015303987163149809 9.9409729893758873e-05 0.00011239627411451516 -2.817102971760608e-05 -8.0539987713152e-07 -0.0001057441889667983 -0.00012227978149262391 -7.5553345798375651e-05 0.0001071016555332802 -0.00032696036721999508 7.1509497757138413e-05 8.0179047484158718e-06 -0.00016202892746622103 0.00032589821605350812 -0.00020174547195341867 1.288352501291838e-05 2.367899122508589e-05 0.00043637901246012986 0.00062569586891748983 -0.00045945569408948218 -4.5683584089984247e-05 0.00021372847116713777 -1.0121327895404947e-05
leaf_weight=1523 61285 11806 34596 24529 53315 5289 7281 15987 736 59441 2704 8219 3045 2929 43695 11774 1489 52184 1116 32664 5855 52254 672 5293 613 8414 8584 7851 1603 1100 5352 3101 34693 77434 10255 1205 17304 104974 46471 11491 58084 11721 52754 4564 1239 24246 15981 3756 1123 11156 43157 1316 613 20919 2210 47663 3256 2931 657 5631 2306 19435
leaf_count=1523 61285 11806 34596 24529 53315 5289 7281 15987 736 59441 2704 8219 3045 2929 43695 11774 1489 52184 1116 32664 5855 52254 672 5293 613 8414 8584 7851 1603 1100 5352 3101 34693 77434 10255 1205 17304 104974 46471 11491 58084 11721 52754 4564 1239 24246 15981 3756 1123 11156 43157 1316 613 20919 2210 47663 3256 2931 657 5631 2306 19435
internal_value=-3.00937e-07 6.75867e-05 -5.31869e-05 0.000178631 -3.87335e-05 0.00021646 -0.000185149 3.97909e-05 -5.69611e-05 2.17202e-05 -3.49023e-05 4.78563e-05 -0.000151995 0.000369929 3.47075e-05 -6.48782e-05 -0.000330373 -8.48447e-05 0.000182577 0.000189813 -0.000370248 8.05448e-05 -6.23963e-05 0.00022406 6.6252e-06 -8.2727e-06 6.84722e-05 -0.000185613 -3.60994e-06 -0.000244629 -4.57248e-06 0.000109656 -5.75966e-05 -5.38829e-05 -0.000111853 0.000245091 8.0644e-05 3.31894e-06 -8.65821e-05 0.000100742 0.00010577 6.68456e-05 1.55047e-05 -4.67034e-05 -0.000315111 -5.91487e-05 -9.08528e-05 -3.76297e-05 -0.000286445 -1.14584e-05 -2.23369e-05 -0.000356321 -8.13155e-05 -0.000211729 -0.000182758 3.29742e-05 0.000421229 0.000473351 -0.000579819 9.69675e-05 2.14636e-05 3.74045e-05
internal_weight=1.17484e+06 514421 660423 102951 595264 79825 65159 411470 424691 285145 237202 23126 53080 14405 223860 14819 12079 187489 65420 63691 10590 126325 116626 39162 170573 120576 81074 38261 145738 1836 118740 14907 113922 112127 91322 33869 72490 110326 56726 55186 74071 24835 142786 5177 8410 96167 43983 19737 1795 63910 96472 7171 1729 30410 23129 49266 11476 8220 2180 19658 7937 78876
internal_count=1174844 514421 660423 102951 595264 79825 65159 411470 424691 285145 237202 23126 53080 14405 223860 14819 12079 187489 65420 63691 10590 126325 116626 39162 170573 120576 81074 38261 145738 1836 118740 14907 113922 112127 91322 33869 72490 110326 56726 55186 74071 24835 142786 5177 8410 96167 43983 19737 1795 63910 96472 7171 1729 30410 23129 49266 11476 8220 2180 19658 7937 78876
is_linear=0
shrinkage=0.00210449


Tree=13
num_leaves=63
num_cat=0
split_feature=0 217 217 3 0 217 213 48 217 237 139 217 0 244 244 138 145 0 200 27 177 213 61 244 132 61 191 138 160 145 102 50 43 187 0 237 177 0 226 208 213 200 200 132 196 237 217 145 67 237 76 251 252 67 27 126 112 89 231 230 43 234
split_gain=1117.12 399.735 237.706 104.159 101.236 76.6884 71.352 63.0768 55.545 43.3507 38.0434 36.3141 32.5239 31.9352 28.8284 28.7309 28.673 32.6974 28.5319 28.5906 28.4661 25.8591 25.4407 25.3863 25.21 25.193 24.5908 25.433 23.4267 23.4995 23.1012 23.2598 24.3678 22.3386 22.0299 21.8402 24.6582 21.5321 21.0868 21.069 20.88 20.5038 19.8668 21.4274 19.6727 19.236 18.9514 18.6194 18.538 18.5135 18.3356 18.8015 18.2099 17.6185 18.5598 17.3765 16.9079 16.8004 16.7453 16.7436 16.6923 16.4375
threshold=0.10704457387328149 0.11277933418750764 -0.062410507351160042 -0.070554792881011949 -0.75049713253974903 -0.21839594841003415 -0.11361100152134894 -0.92369157075881947 0.016445403918623928 0.054874502122402198 1.2181835770606997 0.24940656125545504 0.40034186840057379 0.51467469334602367 -0.1415993273258209 -0.66772788763046254 -1.2502983808517454 -0.52084022760391224 0.001475340861361474 0.24869366735219958 1.2061616182327273 -0.087034989148378358 -0.43073073029518122 0.95507359504699718 0.89216747879982006 -0.88660570979118336 -1.1013985872268675 1.2465978264808657 -2.7607601881027217 0.30026093125343328 1.0940835475921633 -0.54738467931747425 0.13229907304048541 -0.070406693965196596 -1.3487007021903989 -0.21463939547538755 1.59542453289032 -0.65303453803062428 -0.0047548897564411155 -0.17563378065824506 0.097166199237108244 0.0015359396929852667 0.001475340861361474 -0.37080752849578852 -0.0073396072257310143 -0.010359870269894598 0.0013592657633125784 1.4181439876556399 -0.33142262697219843 0.063884668052196517 -0.012019361369311808 -1.4988152384757993 -0.93395870923995961 -0.89305436611175526 -0.40545079112052912 0.57724490761756908 1.0636369585990908 1.1675842404365542 -0.15246256440877912 -0.25257816910743708 0.13849122822284701 -1.1232997775077818
decision_type=2 2 2 2 2 2 2 2 2 2 2 2 2 2 2 2 2 2 2 2 2 2 2 2 2 2 2 2 2 2 2 2 2 2 2 2 2 2 2 2 2 2 2 2 2 2 2 2 2 2 2 2 2 2 2 2 2 2 2 2 2 2
left_child=1 3 5 8 7 14 12 11 18 41 13 26 -4 -9 20 -6 22 -18 19 55 50 35 -5 42 49 -12 -3 59 -10 37 31 -20 -33 -17 -15 44 47 58 -35 -40 -21 52 -11 -44 -7 -43 -19 48 -37 -14 -2 -52 -8 -54 -55 61 -39 -42 -30 -28 -36 -1
right_child=2 4 6 16 15 21 9 10 28 23 25 -13 24 34 -16 33 17 46 30 40 -22 -23 -24 -25 -26 -27 27 -29 29 -31 -32 32 -34 38 60 36 -38 56 39 -41 57 45 43 -45 -46 -47 -48 -49 -50 -51 51 -53 53 54 -56 -57 -58 -59 -60 -61 -62 -63
